%YAML:1.0
svmClassifier: !!opencv-ml-svm
   svm_type: C_SVC
   kernel: { type:LINEAR }
   C: 5.0000000000000000e-01
   term_criteria: { epsilon:1.1920928955078125e-07, iterations:1000 }
   var_all: 128
   var_count: 128
   class_count: 2
   class_labels: !!opencv-matrix
      rows: 1
      cols: 2
      dt: i
      data: [ 0, 1 ]
   sv_total: 949
   support_vectors:
      - [ 0., 0., 0., 0., 129., 132., 0., 0., 55., 5., 0., 0., 58., 122.,
          5., 13., 137., 20., 0., 0., 9., 3., 2., 32., 55., 3., 0., 0.,
          44., 4., 0., 3., 0., 0., 0., 0., 53., 115., 0., 0., 45., 1.,
          0., 0., 117., 137., 6., 12., 137., 14., 0., 1., 21., 21., 4.,
          29., 66., 2., 0., 2., 60., 1., 0., 4., 0., 0., 0., 0., 20.,
          20., 0., 0., 12., 1., 0., 0., 133., 137., 4., 5., 137., 38.,
          1., 4., 40., 53., 6., 14., 65., 12., 2., 11., 37., 0., 0., 5.,
          0., 0., 0., 0., 5., 3., 0., 0., 0., 0., 0., 0., 102., 61., 0.,
          0., 38., 63., 3., 2., 75., 57., 1., 2., 63., 32., 5., 5., 4.,
          1., 0., 11. ]
      - [ 42., 3., 0., 0., 73., 12., 0., 1., 156., 20., 1., 3., 57., 13.,
          3., 9., 13., 2., 0., 4., 156., 38., 2., 1., 25., 1., 0., 0.,
          12., 2., 0., 2., 40., 1., 0., 0., 81., 21., 0., 2., 156., 21.,
          0., 4., 60., 19., 1., 18., 25., 3., 0., 6., 156., 55., 1., 4.,
          31., 1., 0., 0., 23., 4., 0., 3., 29., 1., 0., 0., 78., 18.,
          1., 1., 156., 22., 0., 1., 54., 17., 0., 17., 35., 4., 0., 2.,
          156., 67., 0., 6., 28., 0., 0., 0., 35., 8., 0., 4., 14., 2.,
          0., 0., 67., 5., 0., 0., 156., 71., 4., 6., 33., 7., 0., 7.,
          26., 24., 6., 23., 156., 31., 0., 3., 20., 4., 0., 0., 45., 5.,
          0., 0. ]
      - [ 78., 128., 13., 0., 0., 0., 0., 0., 73., 129., 21., 0., 0., 0.,
          0., 0., 99., 84., 8., 0., 0., 0., 0., 16., 41., 5., 2., 12.,
          10., 0., 0., 29., 71., 97., 5., 0., 0., 0., 1., 13., 42., 129.,
          38., 0., 0., 0., 0., 1., 129., 129., 19., 0., 0., 0., 0., 4.,
          40., 48., 59., 47., 7., 0., 0., 3., 22., 13., 23., 16., 1., 1.,
          3., 13., 129., 47., 37., 7., 0., 0., 0., 58., 129., 74., 54.,
          1., 0., 0., 0., 38., 40., 78., 68., 7., 1., 0., 1., 1., 22.,
          2., 12., 34., 1., 0., 0., 51., 112., 4., 7., 4., 0., 0., 2.,
          129., 53., 21., 33., 8., 0., 0., 5., 70., 58., 21., 7., 2., 0.,
          0., 7., 89. ]
      - [ 13., 0., 0., 4., 139., 58., 4., 6., 140., 5., 0., 3., 25., 9.,
          1., 22., 74., 7., 1., 50., 131., 0., 0., 2., 13., 1., 0., 21.,
          65., 1., 1., 14., 26., 1., 0., 26., 140., 1., 0., 3., 140.,
          10., 1., 11., 39., 0., 0., 37., 50., 5., 1., 67., 140., 1., 0.,
          9., 24., 0., 0., 10., 39., 2., 1., 35., 31., 2., 0., 26., 140.,
          1., 0., 2., 140., 30., 2., 16., 40., 1., 0., 8., 35., 9., 2.,
          64., 125., 1., 0., 7., 35., 0., 0., 5., 10., 1., 0., 35., 19.,
          0., 0., 14., 140., 3., 0., 7., 140., 6., 1., 12., 25., 2., 0.,
          21., 23., 3., 1., 26., 58., 3., 1., 14., 21., 0., 0., 0., 1.,
          0., 0., 25. ]
      - [ 1., 17., 75., 82., 99., 94., 54., 5., 48., 12., 5., 10., 43.,
          66., 67., 130., 110., 21., 2., 1., 1., 1., 2., 73., 12., 6.,
          2., 13., 33., 15., 3., 5., 14., 58., 106., 37., 6., 10., 8.,
          15., 21., 83., 91., 16., 19., 14., 11., 24., 130., 130., 40.,
          3., 3., 2., 2., 11., 37., 13., 1., 11., 31., 30., 6., 9., 39.,
          99., 36., 44., 45., 18., 8., 18., 51., 66., 23., 36., 81., 29.,
          9., 20., 130., 46., 7., 5., 11., 4., 2., 57., 51., 12., 2.,
          19., 27., 22., 5., 15., 68., 45., 15., 39., 43., 5., 1., 7.,
          96., 43., 8., 32., 13., 1., 6., 18., 130., 11., 1., 5., 2., 1.,
          2., 40., 37., 6., 4., 19., 18., 16., 4., 11. ]
      - [ 0., 0., 100., 133., 24., 7., 1., 0., 0., 27., 133., 71., 1.,
          1., 1., 0., 0., 15., 133., 96., 8., 3., 1., 0., 32., 71., 71.,
          47., 4., 1., 0., 0., 4., 1., 13., 64., 133., 60., 2., 0., 52.,
          6., 39., 30., 9., 14., 21., 28., 6., 1., 34., 23., 18., 112.,
          27., 9., 81., 28., 13., 6., 4., 26., 6., 5., 3., 0., 0., 2.,
          133., 133., 12., 2., 106., 13., 1., 2., 17., 38., 28., 22.,
          31., 12., 2., 3., 32., 108., 12., 5., 42., 11., 0., 1., 53.,
          59., 5., 1., 0., 0., 1., 16., 133., 84., 4., 0., 14., 40., 17.,
          45., 50., 20., 7., 2., 9., 47., 37., 22., 24., 3., 0., 0., 14.,
          6., 6., 27., 63., 5., 0., 0. ]
      - [ 10., 140., 18., 4., 1., 0., 0., 0., 63., 140., 1., 0., 0., 3.,
          0., 0., 23., 31., 0., 4., 20., 40., 0., 0., 0., 0., 0., 18.,
          59., 44., 0., 0., 28., 40., 12., 10., 14., 0., 0., 1., 140.,
          140., 9., 1., 0., 0., 0., 26., 100., 37., 41., 79., 29., 1.,
          0., 9., 0., 0., 26., 140., 49., 0., 0., 0., 16., 20., 2., 5.,
          35., 15., 2., 0., 115., 140., 65., 2., 1., 2., 1., 6., 18.,
          80., 140., 99., 1., 0., 0., 1., 0., 1., 111., 112., 1., 0., 0.,
          0., 3., 2., 0., 0., 7., 95., 41., 9., 7., 40., 11., 0., 2.,
          47., 17., 3., 2., 43., 67., 4., 1., 2., 0., 0., 0., 15., 46.,
          4., 0., 0., 0., 0. ]
      - [ 13., 6., 20., 30., 107., 136., 70., 83., 136., 3., 0., 1., 1.,
          12., 33., 136., 34., 1., 1., 13., 39., 23., 7., 44., 11., 1.,
          0., 2., 9., 8., 8., 33., 33., 97., 51., 17., 17., 8., 13., 25.,
          136., 110., 10., 2., 4., 4., 7., 52., 40., 3., 1., 16., 47.,
          32., 9., 20., 20., 1., 0., 2., 3., 3., 6., 22., 98., 61., 24.,
          23., 28., 2., 1., 33., 136., 36., 5., 7., 8., 5., 2., 115.,
          43., 11., 5., 28., 24., 18., 8., 18., 12., 6., 0., 0., 0., 1.,
          4., 12., 135., 13., 7., 2., 0., 0., 4., 114., 136., 4., 6.,
          11., 7., 6., 3., 116., 8., 12., 8., 13., 14., 17., 13., 17.,
          3., 2., 0., 0., 0., 0., 3., 6. ]
      - [ 2., 2., 3., 9., 34., 21., 5., 2., 47., 19., 1., 6., 21., 31.,
          5., 3., 139., 22., 0., 0., 0., 0., 0., 33., 108., 14., 0., 0.,
          0., 0., 0., 9., 32., 42., 1., 0., 3., 32., 17., 10., 61., 6.,
          0., 0., 25., 139., 21., 11., 139., 21., 0., 0., 3., 12., 3.,
          48., 98., 20., 1., 0., 0., 0., 0., 11., 58., 118., 3., 0., 1.,
          5., 1., 1., 79., 51., 0., 0., 30., 116., 11., 8., 139., 125.,
          13., 3., 18., 41., 5., 15., 43., 120., 63., 23., 0., 0., 0.,
          0., 41., 43., 0., 0., 3., 19., 6., 1., 101., 91., 1., 1., 30.,
          18., 1., 0., 7., 63., 32., 10., 92., 33., 0., 0., 3., 79.,
          139., 23., 5., 0., 0., 0. ]
      - [ 4., 68., 60., 113., 28., 0., 0., 0., 93., 138., 10., 0., 0.,
          0., 0., 0., 72., 38., 0., 0., 0., 0., 1., 3., 3., 7., 3., 0.,
          0., 0., 9., 3., 28., 77., 59., 74., 31., 0., 0., 2., 138.,
          138., 11., 0., 0., 0., 0., 13., 137., 58., 9., 0., 0., 0., 0.,
          1., 1., 17., 36., 3., 0., 0., 0., 0., 90., 7., 2., 20., 15.,
          0., 0., 37., 138., 20., 1., 0., 0., 0., 1., 114., 69., 66.,
          46., 1., 0., 1., 3., 9., 0., 10., 91., 26., 1., 1., 0., 0.,
          123., 0., 0., 2., 2., 0., 0., 87., 138., 1., 0., 0., 0., 1.,
          8., 138., 6., 5., 8., 1., 1., 20., 23., 15., 0., 1., 20., 20.,
          13., 39., 5., 0. ]
      - [ 0., 0., 0., 4., 7., 5., 2., 1., 0., 0., 31., 44., 6., 1., 1.,
          0., 0., 14., 78., 14., 0., 0., 0., 0., 1., 25., 17., 0., 0.,
          1., 1., 0., 0., 0., 0., 26., 49., 4., 1., 1., 10., 9., 64.,
          130., 101., 0., 0., 1., 89., 76., 121., 44., 5., 1., 1., 24.,
          25., 80., 24., 10., 2., 1., 1., 7., 0., 0., 0., 57., 116., 0.,
          0., 0., 53., 16., 7., 130., 130., 0., 0., 1., 130., 69., 20.,
          55., 14., 0., 1., 21., 106., 32., 18., 49., 6., 1., 1., 25.,
          0., 0., 0., 54., 130., 1., 0., 0., 33., 16., 2., 91., 130., 1.,
          1., 12., 115., 69., 12., 10., 5., 1., 2., 27., 130., 9., 6.,
          5., 2., 0., 1., 41. ]
      - [ 37., 48., 6., 7., 19., 4., 5., 15., 26., 37., 6., 36., 78., 1.,
          0., 1., 129., 8., 2., 12., 73., 16., 1., 17., 8., 0., 0., 0.,
          138., 76., 2., 3., 34., 30., 6., 21., 93., 6., 1., 5., 58.,
          38., 14., 79., 39., 0., 0., 1., 138., 8., 2., 16., 72., 9., 0.,
          12., 15., 0., 0., 0., 138., 42., 1., 2., 12., 56., 15., 59.,
          92., 1., 0., 1., 58., 48., 10., 25., 32., 5., 1., 8., 138., 3.,
          1., 3., 56., 10., 1., 25., 17., 0., 0., 0., 138., 42., 4., 4.,
          4., 32., 3., 14., 91., 33., 2., 0., 45., 91., 16., 1., 2., 5.,
          4., 5., 138., 45., 1., 0., 31., 4., 0., 9., 15., 3., 0., 1.,
          138., 41., 3., 2. ]
      - [ 0., 0., 11., 39., 25., 0., 0., 0., 3., 8., 7., 54., 134., 12.,
          0., 2., 40., 50., 21., 16., 41., 8., 9., 27., 16., 24., 24.,
          8., 1., 3., 22., 26., 0., 0., 89., 109., 11., 9., 5., 0., 13.,
          19., 63., 134., 74., 37., 4., 3., 134., 66., 24., 26., 13., 8.,
          10., 34., 23., 1., 1., 1., 0., 3., 55., 23., 0., 0., 9., 16.,
          8., 42., 119., 0., 13., 4., 4., 22., 36., 134., 88., 9., 134.,
          12., 2., 2., 7., 71., 29., 65., 61., 0., 0., 0., 0., 0., 58.,
          45., 0., 0., 0., 0., 0., 7., 95., 1., 0., 0., 0., 0., 54.,
          134., 48., 1., 134., 2., 0., 0., 55., 79., 6., 20., 88., 1.,
          0., 0., 0., 0., 13., 26. ]
      - [ 37., 43., 8., 47., 28., 0., 0., 1., 131., 121., 1., 0., 0., 0.,
          2., 21., 35., 53., 15., 50., 37., 25., 10., 13., 0., 0., 0.,
          48., 79., 20., 1., 0., 93., 32., 4., 29., 24., 0., 0., 4.,
          133., 27., 1., 3., 3., 1., 7., 133., 31., 10., 4., 61., 133.,
          21., 21., 68., 0., 0., 0., 61., 75., 2., 0., 0., 132., 21., 1.,
          11., 9., 0., 1., 4., 133., 82., 13., 26., 6., 1., 1., 32., 20.,
          19., 14., 133., 130., 3., 2., 11., 15., 2., 1., 30., 35., 12.,
          6., 5., 76., 6., 1., 0., 2., 1., 7., 12., 133., 56., 7., 17.,
          7., 0., 0., 10., 10., 10., 6., 68., 64., 0., 0., 0., 49., 2.,
          0., 5., 7., 1., 3., 5. ]
      - [ 0., 7., 100., 7., 1., 8., 12., 1., 13., 11., 78., 18., 5., 29.,
          12., 2., 37., 7., 5., 1., 1., 11., 80., 50., 2., 4., 1., 0.,
          8., 24., 103., 13., 0., 1., 34., 4., 1., 89., 116., 0., 64.,
          13., 35., 4., 0., 48., 83., 16., 119., 15., 2., 0., 2., 4.,
          25., 55., 13., 1., 0., 13., 82., 25., 26., 9., 0., 0., 0., 0.,
          0., 110., 119., 0., 10., 0., 0., 0., 0., 119., 119., 16., 89.,
          4., 0., 1., 8., 13., 73., 78., 12., 1., 0., 35., 119., 1., 0.,
          6., 4., 17., 6., 0., 0., 60., 96., 3., 1., 0., 0., 0., 0.,
          103., 119., 2., 1., 0., 0., 1., 13., 71., 97., 11., 0., 0., 0.,
          23., 119., 24., 5., 1. ]
      - [ 11., 47., 70., 29., 2., 0., 0., 0., 138., 79., 9., 3., 0., 1.,
          7., 30., 48., 13., 8., 89., 73., 43., 31., 28., 1., 22., 21.,
          40., 31., 8., 0., 0., 71., 40., 24., 6., 1., 0., 0., 4., 138.,
          60., 8., 25., 5., 0., 0., 12., 46., 24., 19., 138., 88., 0.,
          0., 0., 37., 47., 17., 55., 16., 0., 0., 0., 120., 2., 1., 2.,
          1., 0., 0., 31., 138., 7., 4., 63., 37., 0., 0., 50., 23., 10.,
          12., 138., 83., 0., 0., 1., 92., 25., 5., 14., 2., 0., 0., 3.,
          113., 0., 0., 0., 0., 0., 0., 58., 94., 0., 0., 59., 97., 0.,
          0., 46., 35., 2., 1., 66., 83., 0., 0., 15., 75., 2., 0., 0.,
          0., 0., 0., 32. ]
      - [ 0., 19., 86., 4., 0., 0., 0., 0., 14., 54., 67., 1., 0., 0.,
          12., 13., 2., 13., 77., 1., 0., 0., 61., 20., 0., 1., 65., 3.,
          0., 4., 68., 9., 23., 35., 130., 17., 0., 0., 0., 1., 148.,
          57., 38., 4., 0., 0., 41., 74., 48., 14., 30., 3., 0., 2.,
          148., 99., 1., 6., 28., 13., 2., 26., 148., 34., 26., 16., 25.,
          1., 0., 0., 65., 92., 148., 70., 48., 2., 0., 0., 17., 83.,
          44., 58., 148., 14., 0., 0., 12., 12., 1., 16., 148., 39., 1.,
          3., 9., 4., 13., 2., 0., 0., 0., 0., 50., 53., 33., 10., 10.,
          0., 0., 0., 10., 43., 4., 7., 43., 1., 0., 0., 12., 26., 0.,
          1., 29., 1., 0., 0., 19., 12. ]
      - [ 41., 60., 2., 1., 12., 31., 2., 6., 24., 49., 5., 5., 32., 72.,
          3., 2., 67., 116., 1., 0., 1., 4., 3., 9., 21., 18., 0., 0.,
          14., 11., 0., 1., 48., 34., 7., 7., 11., 16., 8., 25., 12.,
          32., 71., 54., 54., 50., 6., 6., 116., 83., 23., 3., 2., 5.,
          4., 32., 64., 7., 0., 0., 8., 4., 0., 8., 59., 116., 17., 1.,
          16., 20., 3., 4., 29., 45., 11., 11., 116., 114., 7., 16.,
          116., 116., 35., 3., 13., 12., 4., 45., 47., 78., 8., 0., 3.,
          1., 0., 1., 54., 116., 6., 0., 2., 6., 38., 9., 43., 111., 7.,
          4., 78., 67., 1., 2., 27., 116., 55., 7., 52., 81., 0., 1.,
          108., 116., 11., 0., 1., 2., 0., 0. ]
      - [ 22., 0., 0., 0., 20., 2., 0., 2., 171., 0., 0., 2., 38., 1.,
          0., 14., 34., 0., 0., 13., 171., 0., 0., 2., 2., 0., 0., 2.,
          33., 0., 0., 1., 33., 0., 0., 2., 23., 0., 0., 2., 171., 0.,
          0., 2., 57., 1., 0., 17., 38., 0., 0., 16., 171., 0., 0., 2.,
          3., 1., 0., 3., 36., 0., 0., 0., 39., 1., 2., 6., 16., 0., 0.,
          1., 171., 2., 0., 5., 62., 0., 0., 9., 32., 1., 0., 25., 171.,
          0., 0., 1., 2., 3., 1., 4., 29., 0., 0., 0., 31., 4., 2., 9.,
          8., 0., 0., 0., 171., 32., 6., 13., 44., 0., 0., 1., 18., 6.,
          5., 46., 171., 0., 0., 0., 0., 7., 4., 6., 17., 0., 0., 0. ]
      - [ 14., 86., 126., 8., 2., 1., 1., 10., 15., 54., 126., 72., 30.,
          5., 2., 4., 25., 76., 30., 9., 2., 0., 0., 2., 7., 19., 12.,
          6., 36., 33., 3., 2., 23., 44., 126., 37., 10., 1., 0., 3.,
          126., 118., 126., 11., 0., 0., 0., 15., 56., 74., 58., 16., 4.,
          1., 0., 9., 1., 42., 126., 51., 2., 5., 2., 0., 24., 18., 4.,
          7., 36., 15., 2., 3., 98., 126., 74., 0., 0., 2., 2., 6., 12.,
          96., 126., 44., 1., 0., 0., 2., 2., 2., 126., 121., 0., 0., 1.,
          9., 0., 2., 1., 3., 14., 23., 6., 0., 4., 25., 12., 0., 0., 6.,
          16., 12., 6., 27., 48., 3., 0., 0., 5., 45., 6., 1., 17., 7.,
          0., 0., 5., 74. ]
      - [ 10., 60., 74., 13., 0., 0., 0., 0., 64., 83., 11., 1., 15.,
          13., 9., 9., 3., 1., 0., 1., 46., 95., 19., 3., 0., 0., 0., 0.,
          36., 60., 6., 0., 59., 25., 4., 2., 3., 1., 0., 3., 138., 22.,
          1., 0., 1., 15., 19., 57., 28., 2., 0., 0., 73., 138., 39.,
          23., 0., 0., 0., 0., 72., 97., 46., 0., 69., 2., 0., 1., 4.,
          1., 1., 7., 138., 45., 7., 0., 1., 4., 2., 16., 46., 65., 39.,
          0., 15., 99., 35., 4., 1., 18., 6., 0., 5., 113., 138., 1.,
          26., 1., 0., 0., 1., 2., 85., 51., 127., 13., 9., 5., 13., 7.,
          20., 104., 10., 71., 99., 22., 24., 5., 2., 3., 2., 138., 47.,
          1., 0., 5., 13., 1. ]
      - [ 0., 8., 146., 14., 0., 0., 15., 7., 1., 27., 146., 30., 1., 0.,
          12., 6., 0., 1., 146., 145., 9., 0., 6., 2., 0., 0., 146., 75.,
          1., 0., 1., 0., 21., 27., 146., 5., 0., 0., 0., 2., 71., 60.,
          92., 14., 15., 3., 0., 1., 6., 3., 46., 77., 130., 28., 4., 0.,
          0., 0., 55., 37., 21., 11., 37., 6., 33., 1., 0., 0., 0., 0.,
          3., 18., 134., 2., 0., 0., 6., 6., 1., 10., 17., 0., 0., 0.,
          46., 80., 62., 7., 0., 0., 0., 0., 5., 18., 146., 34., 14., 0.,
          0., 0., 0., 0., 6., 21., 106., 0., 0., 0., 0., 0., 1., 21.,
          33., 0., 0., 0., 0., 5., 44., 26., 0., 0., 0., 0., 0., 1., 61.,
          11. ]
      - [ 9., 15., 2., 0., 0., 0., 0., 1., 7., 8., 1., 0., 0., 1., 13.,
          19., 10., 3., 0., 0., 0., 4., 21., 26., 11., 0., 0., 0., 0.,
          0., 6., 131., 31., 26., 11., 0., 0., 0., 0., 5., 130., 10., 0.,
          0., 0., 11., 63., 127., 29., 1., 0., 0., 0., 115., 131., 71.,
          99., 27., 0., 0., 0., 13., 21., 131., 40., 7., 2., 0., 0., 0.,
          10., 82., 131., 26., 0., 0., 0., 4., 33., 131., 70., 31., 0.,
          0., 0., 100., 75., 26., 32., 41., 0., 0., 0., 74., 68., 10.,
          3., 0., 0., 0., 0., 0., 49., 131., 14., 1., 0., 0., 0., 19.,
          108., 131., 13., 27., 0., 0., 0., 72., 40., 10., 4., 37., 1.,
          0., 1., 47., 13., 0. ]
      - [ 4., 4., 18., 8., 0., 0., 0., 0., 142., 5., 5., 2., 0., 0., 0.,
          39., 140., 9., 5., 4., 0., 0., 1., 51., 10., 15., 61., 24., 0.,
          0., 4., 16., 19., 9., 28., 16., 0., 0., 0., 0., 142., 20., 8.,
          4., 0., 0., 0., 42., 99., 8., 41., 119., 2., 0., 0., 31., 0.,
          2., 96., 142., 3., 1., 1., 0., 32., 13., 13., 27., 0., 0., 0.,
          0., 142., 53., 8., 7., 3., 1., 4., 17., 46., 14., 26., 107.,
          36., 56., 68., 13., 0., 0., 20., 60., 8., 34., 112., 22., 38.,
          8., 6., 23., 0., 0., 0., 1., 142., 13., 1., 1., 0., 0., 6.,
          67., 55., 1., 0., 0., 2., 49., 109., 58., 7., 0., 0., 0., 1.,
          51., 119., 37. ]
      - [ 27., 17., 93., 133., 4., 0., 0., 5., 133., 62., 31., 109., 10.,
          0., 0., 6., 133., 112., 133., 1., 0., 0., 0., 1., 1., 14.,
          133., 0., 0., 0., 0., 0., 24., 4., 55., 54., 0., 0., 0., 9.,
          133., 26., 10., 6., 2., 5., 7., 76., 24., 40., 133., 16., 46.,
          31., 10., 18., 0., 9., 133., 18., 11., 1., 0., 0., 47., 4., 1.,
          1., 0., 0., 1., 20., 133., 21., 0., 0., 5., 3., 1., 24., 35.,
          11., 1., 4., 133., 38., 2., 4., 3., 4., 6., 9., 48., 16., 6.,
          1., 34., 1., 0., 0., 0., 0., 3., 25., 90., 38., 5., 1., 1., 0.,
          0., 7., 19., 24., 18., 36., 55., 6., 0., 0., 1., 1., 0., 7.,
          23., 10., 13., 3. ]
      - [ 61., 0., 0., 4., 0., 0., 2., 132., 132., 6., 1., 3., 0., 0.,
          0., 75., 23., 5., 47., 26., 0., 0., 0., 3., 0., 2., 101., 11.,
          0., 0., 0., 0., 90., 7., 0., 0., 0., 0., 1., 54., 132., 26.,
          2., 15., 23., 2., 0., 8., 15., 4., 99., 132., 116., 28., 6.,
          0., 0., 1., 132., 49., 6., 10., 31., 2., 36., 3., 0., 0., 0.,
          7., 53., 61., 132., 3., 0., 1., 19., 13., 4., 47., 18., 0., 1.,
          10., 99., 132., 73., 3., 0., 0., 8., 5., 5., 34., 132., 11.,
          11., 0., 0., 0., 16., 19., 20., 10., 113., 2., 0., 0., 0., 2.,
          3., 19., 27., 0., 0., 0., 1., 30., 51., 10., 0., 0., 0., 0.,
          0., 5., 112., 7. ]
      - [ 77., 11., 0., 0., 0., 0., 0., 1., 173., 107., 11., 1., 0., 0.,
          0., 4., 36., 68., 82., 3., 0., 0., 6., 7., 7., 35., 107., 14.,
          1., 1., 8., 4., 82., 4., 0., 0., 0., 0., 0., 4., 173., 38., 2.,
          0., 0., 0., 3., 62., 67., 17., 22., 0., 0., 0., 86., 67., 0.,
          3., 31., 2., 0., 0., 110., 10., 72., 5., 0., 0., 0., 0., 0.,
          2., 173., 33., 0., 0., 0., 0., 0., 12., 152., 9., 0., 0., 0.,
          0., 17., 19., 2., 1., 0., 0., 0., 0., 23., 4., 50., 2., 0., 0.,
          0., 0., 0., 2., 173., 15., 0., 0., 0., 0., 0., 1., 150., 7.,
          0., 0., 0., 0., 0., 1., 4., 1., 0., 0., 0., 0., 0., 0. ]
      - [ 11., 5., 8., 2., 0., 0., 3., 15., 14., 4., 3., 17., 10., 6.,
          31., 22., 0., 0., 0., 18., 19., 14., 82., 12., 3., 0., 0., 0.,
          0., 3., 47., 29., 36., 19., 19., 16., 9., 0., 2., 11., 142.,
          26., 12., 6., 4., 11., 104., 142., 22., 4., 4., 9., 23., 142.,
          142., 56., 1., 1., 0., 0., 3., 41., 142., 26., 55., 28., 45.,
          24., 21., 1., 1., 6., 142., 140., 48., 9., 5., 3., 6., 31.,
          40., 71., 117., 46., 33., 43., 18., 12., 12., 14., 9., 6., 12.,
          17., 30., 9., 59., 63., 33., 17., 3., 1., 1., 17., 142., 85.,
          12., 0., 0., 0., 1., 58., 48., 49., 30., 1., 1., 3., 5., 38.,
          8., 23., 36., 6., 1., 3., 7., 2. ]
      - [ 21., 24., 108., 8., 0., 1., 10., 29., 3., 50., 60., 2., 8.,
          19., 27., 16., 29., 73., 13., 1., 2., 1., 0., 1., 9., 4., 1.,
          0., 0., 1., 3., 3., 138., 37., 23., 31., 9., 3., 16., 86., 33.,
          30., 23., 138., 99., 36., 35., 35., 138., 81., 18., 29., 11.,
          2., 0., 6., 31., 2., 1., 0., 0., 1., 3., 5., 138., 109., 8.,
          25., 19., 1., 0., 4., 41., 30., 11., 94., 130., 48., 6., 12.,
          138., 12., 4., 8., 9., 11., 6., 38., 34., 1., 1., 1., 4., 0.,
          0., 2., 76., 129., 4., 3., 5., 0., 0., 3., 58., 49., 14., 43.,
          70., 8., 1., 3., 138., 31., 8., 9., 11., 2., 1., 14., 22., 1.,
          0., 1., 5., 0., 0., 3. ]
      - [ 84., 15., 2., 0., 0., 0., 0., 4., 190., 27., 0., 0., 0., 10.,
          3., 22., 27., 1., 0., 0., 12., 25., 6., 13., 60., 0., 0., 1.,
          11., 2., 1., 30., 88., 8., 0., 0., 1., 2., 4., 6., 190., 34.,
          0., 0., 2., 10., 4., 11., 76., 2., 0., 0., 53., 63., 8., 16.,
          72., 0., 0., 1., 14., 5., 2., 47., 68., 12., 3., 5., 4., 1.,
          0., 1., 190., 30., 0., 0., 2., 2., 1., 7., 122., 8., 0., 1.,
          74., 52., 7., 19., 65., 0., 0., 0., 18., 18., 13., 90., 64.,
          6., 4., 4., 1., 0., 0., 1., 190., 21., 2., 0., 0., 0., 0., 10.,
          97., 31., 9., 2., 13., 9., 3., 32., 53., 0., 0., 3., 35., 13.,
          13., 96. ]
      - [ 45., 4., 0., 11., 32., 0., 0., 1., 142., 5., 0., 0., 36., 7.,
          1., 2., 36., 1., 0., 0., 142., 54., 1., 4., 85., 9., 2., 1.,
          13., 8., 4., 29., 59., 2., 0., 6., 41., 2., 0., 3., 142., 6.,
          0., 0., 34., 5., 0., 7., 35., 1., 0., 1., 142., 48., 4., 17.,
          84., 2., 0., 0., 17., 17., 15., 88., 60., 3., 0., 1., 45., 7.,
          0., 3., 142., 4., 0., 0., 15., 10., 3., 14., 32., 0., 0., 0.,
          97., 93., 63., 52., 27., 0., 0., 0., 4., 12., 86., 142., 47.,
          3., 1., 4., 40., 5., 0., 1., 142., 6., 0., 0., 0., 2., 2., 14.,
          66., 1., 0., 0., 1., 18., 57., 85., 10., 0., 0., 0., 0., 1.,
          100., 93. ]
      - [ 15., 2., 0., 1., 5., 4., 2., 25., 83., 4., 1., 8., 15., 18.,
          4., 4., 197., 12., 0., 0., 0., 1., 1., 4., 51., 1., 0., 2., 4.,
          0., 0., 1., 10., 5., 8., 10., 1., 2., 3., 8., 92., 11., 10.,
          36., 8., 13., 4., 6., 197., 16., 2., 2., 1., 1., 1., 7., 65.,
          0., 0., 1., 9., 1., 0., 2., 4., 10., 14., 16., 4., 1., 1., 0.,
          100., 12., 7., 25., 10., 4., 4., 12., 197., 33., 1., 1., 0.,
          0., 0., 14., 63., 5., 1., 2., 14., 3., 0., 3., 5., 11., 9.,
          11., 4., 1., 2., 2., 46., 41., 14., 65., 13., 2., 2., 2., 197.,
          197., 23., 6., 0., 0., 0., 1., 22., 95., 76., 3., 3., 0., 0.,
          0. ]
      - [ 136., 4., 0., 0., 12., 0., 0., 16., 136., 13., 0., 0., 0., 1.,
          0., 47., 16., 2., 4., 14., 38., 31., 7., 6., 0., 0., 0., 10.,
          136., 17., 1., 0., 136., 15., 0., 1., 15., 0., 0., 4., 136.,
          56., 0., 2., 5., 0., 0., 6., 24., 5., 7., 61., 65., 6., 0., 1.,
          0., 0., 1., 33., 136., 3., 0., 0., 136., 1., 0., 0., 15., 0.,
          0., 30., 136., 4., 0., 0., 5., 2., 0., 74., 22., 0., 0., 5.,
          67., 61., 8., 6., 0., 0., 0., 5., 136., 28., 1., 0., 136., 12.,
          0., 0., 10., 0., 0., 14., 136., 32., 0., 1., 1., 0., 0., 24.,
          11., 3., 7., 26., 47., 11., 4., 2., 0., 0., 1., 19., 136., 6.,
          0., 0. ]
      - [ 21., 10., 7., 11., 17., 0., 0., 3., 105., 2., 0., 1., 2., 0.,
          0., 17., 142., 1., 0., 0., 0., 3., 26., 84., 1., 0., 0., 0.,
          0., 26., 121., 41., 40., 1., 0., 3., 14., 0., 0., 6., 135.,
          29., 2., 7., 6., 0., 0., 5., 164., 35., 0., 0., 0., 0., 8.,
          72., 46., 0., 0., 0., 0., 1., 62., 114., 26., 1., 0., 2., 19.,
          4., 2., 7., 141., 7., 0., 6., 20., 0., 0., 14., 164., 8., 0.,
          0., 1., 0., 0., 48., 139., 0., 0., 2., 5., 0., 1., 28., 6., 2.,
          1., 1., 11., 40., 53., 1., 109., 2., 2., 4., 4., 5., 43., 40.,
          164., 2., 0., 0., 0., 0., 2., 63., 94., 9., 2., 3., 9., 0., 0.,
          11. ]
      - [ 1., 0., 0., 0., 19., 7., 0., 0., 109., 0., 0., 0., 2., 1., 0.,
          12., 166., 0., 0., 0., 0., 0., 0., 29., 82., 2., 0., 0., 2.,
          0., 0., 2., 1., 0., 0., 2., 26., 3., 0., 1., 159., 0., 0., 0.,
          3., 1., 0., 10., 166., 5., 0., 0., 0., 0., 0., 14., 90., 12.,
          0., 1., 3., 0., 0., 1., 1., 0., 0., 5., 18., 6., 6., 2., 152.,
          1., 0., 0., 1., 0., 4., 21., 166., 42., 4., 0., 0., 0., 0., 9.,
          40., 69., 14., 2., 1., 0., 0., 0., 0., 0., 0., 0., 2., 20.,
          166., 2., 47., 1., 0., 0., 0., 2., 166., 60., 127., 33., 4.,
          0., 0., 0., 65., 79., 17., 42., 11., 0., 0., 0., 24., 24. ]
      - [ 0., 17., 140., 69., 11., 10., 0., 0., 3., 116., 140., 9., 5.,
          6., 2., 1., 43., 87., 57., 1., 1., 2., 4., 13., 6., 11., 55.,
          1., 0., 2., 15., 6., 0., 3., 6., 12., 14., 138., 13., 0., 40.,
          82., 25., 1., 9., 96., 7., 3., 140., 70., 5., 0., 1., 4., 5.,
          29., 31., 0., 0., 0., 0., 9., 40., 20., 0., 0., 0., 0., 0.,
          140., 33., 0., 37., 2., 0., 0., 23., 140., 19., 14., 140., 3.,
          0., 0., 4., 19., 6., 45., 51., 0., 0., 0., 0., 2., 13., 17.,
          0., 0., 0., 0., 4., 82., 28., 0., 18., 0., 0., 0., 84., 126.,
          8., 5., 140., 0., 0., 0., 19., 15., 2., 34., 38., 0., 0., 0.,
          0., 0., 5., 26. ]
      - [ 0., 1., 9., 15., 40., 0., 0., 0., 17., 0., 0., 35., 147., 0.,
          0., 1., 147., 6., 0., 4., 38., 0., 0., 7., 72., 21., 1., 0.,
          0., 0., 0., 0., 0., 1., 11., 21., 55., 0., 0., 0., 29., 0., 0.,
          45., 147., 0., 0., 1., 147., 10., 0., 4., 33., 0., 0., 6., 75.,
          31., 2., 0., 0., 0., 0., 0., 0., 0., 8., 43., 54., 0., 0., 0.,
          29., 11., 3., 86., 147., 0., 0., 0., 147., 57., 2., 9., 20.,
          0., 0., 1., 47., 54., 6., 0., 0., 0., 0., 0., 0., 0., 2., 61.,
          58., 0., 0., 0., 12., 31., 11., 119., 147., 0., 0., 0., 99.,
          147., 12., 17., 11., 0., 0., 0., 10., 91., 25., 0., 0., 0., 0.,
          0. ]
      - [ 4., 1., 0., 17., 11., 0., 0., 1., 8., 7., 6., 83., 68., 0., 0.,
          0., 138., 40., 9., 19., 14., 0., 0., 1., 33., 2., 0., 0., 0.,
          0., 0., 4., 1., 7., 7., 54., 32., 0., 0., 0., 26., 21., 12.,
          138., 135., 0., 0., 1., 138., 83., 14., 37., 14., 0., 0., 5.,
          55., 3., 0., 0., 0., 0., 0., 6., 0., 45., 99., 80., 21., 0.,
          0., 0., 44., 7., 25., 117., 138., 14., 7., 33., 138., 13., 1.,
          7., 13., 4., 4., 91., 57., 6., 0., 0., 0., 0., 0., 4., 0., 32.,
          134., 36., 4., 6., 0., 0., 67., 92., 71., 26., 7., 3., 2., 18.,
          138., 78., 0., 0., 0., 1., 1., 53., 20., 20., 0., 0., 0., 0.,
          0., 2. ]
      - [ 4., 6., 7., 5., 0., 0., 0., 0., 116., 34., 1., 0., 0., 0., 0.,
          3., 156., 6., 0., 2., 11., 0., 0., 41., 41., 0., 0., 11., 87.,
          4., 2., 15., 5., 12., 22., 3., 0., 0., 0., 1., 156., 45., 3.,
          0., 0., 0., 0., 5., 156., 15., 0., 5., 21., 3., 1., 50., 31.,
          1., 18., 35., 87., 12., 3., 15., 29., 21., 6., 1., 0., 0., 0.,
          2., 144., 32., 0., 0., 0., 0., 0., 11., 156., 156., 80., 60.,
          11., 1., 0., 13., 10., 12., 118., 156., 31., 1., 0., 2., 37.,
          22., 3., 1., 0., 0., 6., 6., 41., 20., 1., 0., 0., 0., 5., 13.,
          13., 79., 80., 18., 0., 1., 5., 2., 0., 4., 48., 67., 2., 2.,
          1., 0. ]
      - [ 7., 1., 8., 5., 3., 22., 27., 27., 0., 0., 4., 20., 34., 137.,
          29., 1., 2., 1., 1., 4., 11., 137., 48., 2., 10., 0., 0., 0.,
          0., 38., 24., 6., 1., 1., 24., 41., 38., 38., 2., 3., 6., 7.,
          35., 137., 24., 7., 0., 0., 68., 26., 16., 26., 8., 61., 30.,
          10., 7., 0., 0., 0., 4., 137., 28., 3., 0., 0., 1., 39., 137.,
          137., 0., 0., 33., 7., 11., 101., 69., 2., 0., 4., 137., 11.,
          4., 5., 2., 4., 1., 17., 21., 0., 0., 0., 7., 84., 10., 5., 0.,
          0., 1., 10., 137., 137., 2., 0., 24., 4., 4., 20., 57., 111.,
          24., 41., 103., 2., 0., 0., 0., 1., 4., 98., 11., 0., 0., 2.,
          22., 12., 8., 19. ]
      - [ 18., 52., 7., 8., 17., 45., 53., 8., 65., 9., 5., 18., 103.,
          46., 7., 18., 166., 16., 0., 0., 3., 4., 2., 24., 60., 7., 0.,
          0., 11., 5., 0., 0., 19., 50., 4., 2., 23., 81., 50., 4., 60.,
          1., 1., 3., 89., 128., 10., 20., 166., 3., 0., 0., 2., 5., 2.,
          40., 81., 2., 0., 0., 10., 1., 0., 6., 13., 74., 33., 12., 21.,
          19., 8., 3., 39., 23., 25., 54., 104., 28., 1., 3., 166., 88.,
          2., 6., 8., 3., 0., 4., 79., 21., 0., 0., 6., 1., 0., 1., 2.,
          16., 23., 23., 62., 39., 5., 0., 16., 13., 22., 72., 28., 2.,
          0., 0., 166., 96., 4., 8., 3., 0., 0., 0., 94., 37., 0., 0.,
          0., 1., 0., 0. ]
      - [ 30., 13., 25., 0., 0., 0., 1., 11., 115., 15., 11., 0., 0., 0.,
          1., 42., 139., 37., 0., 0., 0., 0., 3., 31., 139., 42., 0., 0.,
          0., 0., 7., 32., 62., 3., 0., 0., 0., 0., 1., 32., 139., 4.,
          0., 0., 0., 1., 13., 139., 87., 14., 1., 2., 9., 10., 43., 94.,
          139., 139., 4., 0., 1., 0., 1., 13., 99., 16., 0., 0., 0., 0.,
          0., 6., 139., 76., 5., 1., 1., 1., 1., 18., 47., 58., 19., 17.,
          20., 6., 4., 6., 47., 139., 11., 4., 4., 1., 0., 0., 72., 13.,
          0., 0., 0., 0., 0., 1., 113., 79., 3., 0., 0., 0., 0., 10.,
          48., 69., 8., 5., 4., 0., 0., 15., 60., 23., 5., 13., 11., 1.,
          0., 8. ]
      - [ 13., 0., 0., 2., 43., 16., 0., 4., 10., 3., 0., 15., 122.,
          122., 5., 2., 122., 31., 0., 3., 37., 66., 12., 22., 28., 17.,
          9., 10., 121., 41., 1., 3., 9., 0., 0., 29., 37., 3., 0., 3.,
          3., 3., 7., 122., 122., 58., 3., 1., 122., 18., 11., 42., 42.,
          36., 8., 32., 48., 6., 5., 7., 122., 91., 1., 9., 5., 0., 0.,
          53., 79., 10., 0., 0., 10., 9., 9., 77., 122., 57., 26., 5.,
          115., 19., 6., 9., 17., 36., 69., 41., 28., 10., 8., 24., 117.,
          55., 1., 2., 3., 0., 0., 14., 70., 28., 0., 0., 41., 17., 3.,
          17., 103., 41., 3., 2., 65., 17., 3., 6., 49., 20., 16., 6.,
          1., 1., 9., 49., 55., 6., 0., 0. ]
      - [ 2., 33., 33., 2., 0., 12., 5., 1., 0., 7., 43., 20., 10., 31.,
          1., 0., 7., 3., 11., 14., 20., 133., 59., 13., 8., 4., 0., 0.,
          0., 133., 133., 33., 0., 5., 7., 4., 22., 112., 7., 0., 11.,
          16., 66., 73., 49., 39., 3., 2., 133., 38., 34., 19., 3., 7.,
          17., 48., 49., 0., 0., 0., 1., 19., 130., 63., 2., 1., 9., 38.,
          42., 42., 1., 2., 13., 3., 4., 14., 58., 116., 110., 27., 133.,
          8., 2., 2., 2., 21., 110., 84., 96., 1., 0., 1., 5., 1., 4.,
          30., 28., 7., 16., 38., 1., 0., 1., 15., 51., 3., 2., 2., 1.,
          6., 65., 101., 10., 0., 0., 1., 4., 11., 133., 51., 12., 0.,
          0., 0., 5., 6., 12., 18. ]
      - [ 5., 6., 18., 9., 7., 17., 41., 25., 18., 39., 17., 6., 11.,
          15., 36., 50., 86., 97., 12., 0., 1., 1., 24., 137., 49., 21.,
          32., 5., 0., 0., 23., 124., 29., 15., 40., 53., 27., 13., 1.,
          2., 138., 28., 21., 15., 6., 6., 49., 138., 52., 11., 13., 12.,
          34., 26., 79., 138., 26., 27., 110., 24., 6., 11., 3., 22.,
          32., 5., 3., 13., 40., 79., 24., 12., 138., 93., 20., 11., 6.,
          13., 20., 46., 49., 62., 56., 53., 34., 12., 4., 7., 4., 14.,
          14., 6., 11., 29., 5., 1., 7., 23., 6., 5., 24., 19., 8., 5.,
          57., 93., 41., 2., 0., 2., 7., 15., 5., 118., 102., 3., 0., 0.,
          0., 0., 0., 52., 70., 3., 2., 2., 0., 0. ]
      - [ 25., 0., 0., 0., 11., 9., 0., 3., 139., 0., 0., 0., 28., 22.,
          19., 30., 13., 0., 0., 0., 37., 39., 100., 142., 18., 0., 0.,
          8., 126., 18., 27., 77., 35., 0., 0., 0., 14., 12., 0., 3.,
          142., 5., 0., 0., 1., 3., 18., 69., 36., 7., 1., 4., 13., 7.,
          45., 134., 0., 0., 0., 22., 142., 26., 4., 12., 35., 0., 0.,
          0., 14., 11., 0., 5., 142., 43., 2., 0., 1., 1., 0., 18., 67.,
          68., 6., 17., 32., 0., 1., 9., 1., 1., 0., 76., 142., 2., 0.,
          0., 31., 0., 0., 0., 14., 4., 0., 2., 142., 6., 0., 0., 1., 0.,
          2., 47., 60., 9., 0., 1., 34., 9., 5., 49., 2., 0., 0., 7.,
          142., 42., 0., 1. ]
      - [ 18., 8., 1., 10., 20., 1., 0., 3., 133., 4., 0., 6., 10., 1.,
          0., 29., 97., 5., 7., 20., 14., 3., 0., 11., 12., 20., 12.,
          17., 11., 1., 0., 2., 36., 2., 0., 2., 17., 8., 1., 10., 133.,
          29., 15., 10., 7., 4., 1., 42., 73., 30., 70., 133., 5., 0.,
          0., 4., 99., 37., 29., 32., 5., 2., 1., 12., 14., 7., 7., 25.,
          21., 3., 2., 10., 60., 90., 111., 27., 3., 1., 15., 33., 43.,
          28., 117., 126., 1., 0., 65., 79., 133., 27., 10., 12., 3., 1.,
          13., 81., 14., 1., 1., 19., 55., 2., 2., 18., 60., 4., 11., 5.,
          6., 0., 40., 133., 16., 1., 5., 1., 0., 0., 133., 133., 18.,
          1., 0., 4., 18., 3., 36., 78. ]
      - [ 53., 24., 0., 0., 0., 2., 2., 1., 129., 16., 0., 0., 12., 7.,
          4., 28., 6., 0., 0., 4., 120., 35., 8., 9., 2., 0., 3., 6.,
          15., 9., 25., 17., 46., 10., 0., 0., 0., 106., 61., 6., 129.,
          20., 2., 5., 19., 17., 8., 19., 19., 2., 3., 39., 129., 49.,
          4., 6., 0., 2., 14., 84., 20., 6., 7., 5., 11., 12., 37., 15.,
          16., 129., 89., 10., 92., 13., 18., 48., 44., 71., 64., 32.,
          9., 6., 59., 129., 79., 6., 0., 1., 1., 3., 20., 91., 25., 7.,
          5., 2., 1., 71., 129., 18., 8., 20., 4., 0., 2., 79., 62., 27.,
          111., 35., 14., 1., 5., 4., 12., 36., 129., 29., 16., 23., 5.,
          3., 5., 3., 2., 5., 52., 61. ]
      - [ 0., 0., 0., 133., 81., 0., 0., 0., 12., 1., 0., 133., 86., 0.,
          6., 17., 46., 18., 8., 13., 8., 6., 17., 33., 20., 2., 5., 11.,
          14., 12., 9., 33., 6., 1., 0., 133., 128., 0., 0., 2., 57., 7.,
          1., 54., 29., 4., 24., 80., 13., 8., 7., 10., 27., 40., 38.,
          36., 62., 1., 4., 4., 3., 4., 1., 130., 16., 2., 0., 133., 62.,
          0., 0., 10., 87., 50., 14., 11., 3., 1., 1., 28., 16., 14.,
          16., 27., 24., 6., 11., 133., 29., 0., 0., 9., 5., 1., 18.,
          133., 24., 5., 0., 24., 7., 0., 0., 11., 62., 9., 1., 0., 0.,
          0., 0., 58., 107., 3., 2., 7., 1., 0., 7., 133., 9., 1., 1.,
          109., 22., 2., 18., 97. ]
      - [ 1., 38., 44., 47., 60., 26., 0., 0., 14., 19., 9., 15., 78.,
          130., 21., 9., 130., 11., 3., 1., 1., 26., 18., 77., 87., 3.,
          2., 38., 70., 1., 0., 34., 27., 66., 10., 11., 93., 25., 0.,
          0., 97., 53., 1., 0., 10., 130., 42., 14., 113., 28., 3., 3.,
          32., 105., 48., 34., 48., 31., 8., 64., 56., 2., 0., 3., 47.,
          7., 0., 25., 119., 32., 1., 7., 130., 11., 0., 0., 35., 12.,
          3., 16., 36., 29., 4., 12., 130., 27., 3., 2., 12., 40., 21.,
          40., 34., 2., 0., 0., 32., 0., 1., 35., 20., 2., 1., 12., 130.,
          3., 0., 1., 35., 1., 0., 24., 22., 14., 3., 22., 130., 2., 0.,
          2., 10., 25., 22., 20., 32., 5., 0., 0. ]
      - [ 0., 123., 123., 4., 0., 0., 0., 0., 19., 39., 79., 62., 26.,
          0., 0., 6., 60., 3., 2., 11., 10., 0., 3., 50., 3., 0., 0., 0.,
          0., 3., 7., 7., 23., 123., 123., 10., 6., 1., 1., 10., 123.,
          123., 99., 15., 1., 0., 0., 23., 90., 38., 123., 38., 0., 0.,
          0., 11., 1., 6., 25., 1., 0., 0., 0., 0., 65., 9., 18., 10.,
          3., 24., 28., 59., 123., 29., 26., 72., 24., 0., 1., 77., 16.,
          13., 123., 123., 72., 0., 0., 1., 0., 2., 21., 4., 0., 0., 0.,
          0., 14., 64., 62., 2., 0., 13., 25., 25., 22., 23., 106., 78.,
          33., 0., 1., 12., 0., 0., 18., 70., 77., 0., 0., 0., 0., 0.,
          0., 0., 0., 0., 0., 0. ]
      - [ 3., 0., 0., 5., 122., 34., 3., 2., 82., 11., 0., 0., 36., 11.,
          8., 25., 30., 10., 1., 2., 3., 13., 36., 41., 19., 1., 0., 1.,
          0., 0., 42., 92., 0., 0., 0., 35., 122., 12., 9., 8., 48., 25.,
          4., 19., 51., 12., 22., 24., 122., 38., 2., 3., 2., 1., 26.,
          114., 16., 3., 0., 0., 0., 0., 65., 122., 1., 1., 5., 51., 92.,
          2., 2., 4., 56., 2., 2., 34., 60., 5., 15., 115., 122., 63.,
          0., 1., 9., 22., 34., 111., 95., 45., 0., 0., 0., 0., 3., 26.,
          8., 3., 20., 60., 20., 0., 4., 11., 122., 3., 5., 17., 11., 5.,
          9., 122., 99., 20., 3., 20., 83., 45., 14., 52., 122., 25., 0.,
          1., 6., 1., 0., 3. ]
      - [ 8., 3., 0., 0., 0., 2., 53., 13., 6., 1., 0., 0., 0., 7., 111.,
          19., 0., 0., 0., 0., 0., 18., 131., 13., 0., 0., 0., 0., 0.,
          32., 114., 14., 24., 13., 1., 0., 0., 0., 1., 26., 64., 5., 0.,
          0., 0., 3., 50., 104., 8., 0., 0., 0., 0., 19., 131., 70., 2.,
          0., 0., 0., 0., 19., 131., 122., 31., 65., 20., 0., 0., 0., 0.,
          2., 131., 46., 1., 0., 0., 0., 7., 27., 131., 6., 0., 0., 0.,
          3., 54., 62., 114., 0., 0., 0., 0., 10., 77., 122., 54., 40.,
          4., 0., 0., 3., 10., 7., 131., 26., 0., 0., 0., 0., 0., 11.,
          131., 11., 0., 0., 0., 0., 0., 5., 131., 0., 0., 0., 0., 2.,
          2., 17. ]
      - [ 0., 0., 0., 0., 22., 57., 13., 1., 27., 1., 0., 0., 14., 52.,
          93., 29., 128., 8., 0., 0., 0., 3., 41., 45., 39., 2., 0., 0.,
          0., 0., 0., 6., 15., 0., 0., 0., 1., 30., 38., 19., 97., 1.,
          0., 0., 7., 44., 146., 146., 26., 0., 0., 0., 68., 133., 136.,
          51., 20., 0., 0., 0., 5., 5., 3., 17., 36., 2., 0., 0., 0., 9.,
          11., 7., 146., 34., 0., 0., 29., 20., 9., 34., 55., 6., 0., 0.,
          146., 112., 8., 7., 17., 0., 0., 0., 28., 10., 3., 8., 16., 2.,
          0., 0., 1., 4., 2., 2., 146., 43., 0., 0., 13., 4., 0., 1.,
          75., 12., 0., 0., 146., 56., 0., 0., 18., 2., 0., 0., 46., 10.,
          1., 1. ]
      - [ 1., 4., 4., 8., 7., 26., 52., 4., 4., 10., 2., 0., 0., 43.,
          103., 6., 4., 14., 9., 0., 0., 43., 113., 11., 17., 28., 23.,
          0., 0., 31., 62., 19., 2., 5., 2., 5., 19., 38., 43., 6., 33.,
          31., 1., 0., 0., 18., 51., 21., 113., 21., 2., 8., 5., 30.,
          113., 75., 16., 7., 4., 47., 67., 113., 87., 14., 1., 8., 2.,
          0., 11., 113., 64., 3., 20., 30., 5., 0., 0., 33., 82., 34.,
          87., 50., 17., 31., 40., 5., 16., 100., 6., 7., 11., 102.,
          109., 26., 37., 6., 0., 1., 0., 0., 0., 112., 99., 0., 3., 12.,
          1., 0., 0., 112., 113., 2., 11., 36., 14., 8., 8., 31., 113.,
          46., 0., 1., 3., 7., 17., 25., 113., 32. ]
      - [ 116., 58., 10., 5., 3., 13., 10., 17., 48., 36., 18., 35.,
          116., 82., 9., 3., 26., 25., 2., 2., 74., 72., 33., 28., 11.,
          19., 11., 9., 13., 18., 23., 16., 46., 99., 17., 6., 2., 30.,
          20., 5., 116., 79., 23., 15., 26., 61., 30., 52., 15., 2., 0.,
          2., 56., 116., 64., 54., 8., 1., 0., 9., 37., 59., 41., 34.,
          25., 3., 0., 5., 16., 61., 63., 62., 116., 51., 14., 11., 13.,
          22., 66., 77., 17., 20., 41., 83., 96., 54., 7., 8., 8., 4.,
          30., 69., 48., 10., 8., 10., 55., 2., 1., 8., 6., 1., 14.,
          111., 20., 2., 3., 9., 18., 57., 71., 61., 4., 3., 19., 54.,
          116., 99., 11., 2., 52., 7., 20., 17., 18., 6., 11., 29. ]
      - [ 39., 12., 4., 3., 1., 0., 0., 1., 140., 29., 0., 0., 0., 0.,
          0., 28., 140., 14., 5., 0., 0., 0., 0., 140., 100., 13., 43.,
          35., 4., 0., 0., 63., 62., 6., 5., 1., 0., 0., 0., 20., 140.,
          43., 5., 0., 0., 0., 0., 50., 140., 81., 121., 19., 0., 0., 0.,
          41., 19., 30., 140., 46., 0., 0., 0., 3., 24., 4., 0., 0., 0.,
          1., 28., 51., 73., 119., 42., 1., 0., 2., 9., 8., 8., 50.,
          140., 82., 3., 2., 0., 0., 0., 3., 140., 85., 5., 3., 0., 0.,
          0., 0., 0., 0., 0., 8., 35., 8., 1., 6., 6., 0., 0., 18., 23.,
          1., 0., 2., 21., 16., 10., 35., 4., 0., 0., 0., 10., 18., 11.,
          41., 13., 0. ]
      - [ 9., 45., 120., 29., 4., 1., 0., 0., 13., 78., 122., 1., 0., 0.,
          0., 1., 1., 5., 122., 18., 2., 1., 0., 1., 0., 0., 113., 34.,
          5., 1., 0., 0., 21., 28., 75., 37., 10., 1., 1., 3., 122., 75.,
          51., 2., 8., 8., 5., 21., 24., 6., 57., 32., 95., 28., 5., 9.,
          14., 9., 70., 25., 13., 5., 2., 3., 25., 4., 3., 9., 13., 1.,
          12., 36., 122., 50., 26., 9., 6., 1., 3., 33., 18., 21., 51.,
          85., 86., 9., 0., 1., 7., 6., 90., 100., 16., 5., 1., 1., 4.,
          3., 75., 18., 1., 1., 16., 37., 12., 11., 122., 82., 0., 0.,
          3., 18., 1., 5., 122., 122., 2., 0., 0., 0., 1., 4., 101.,
          115., 1., 0., 0., 0. ]
      - [ 79., 0., 0., 3., 66., 13., 1., 13., 33., 46., 3., 9., 68., 17.,
          1., 5., 121., 69., 3., 0., 0., 0., 0., 29., 87., 11., 1., 3.,
          3., 0., 0., 11., 103., 0., 0., 0., 37., 52., 4., 26., 51., 3.,
          0., 0., 77., 113., 5., 12., 121., 20., 0., 0., 1., 3., 1., 70.,
          74., 10., 0., 1., 5., 5., 1., 24., 112., 5., 4., 38., 25., 10.,
          1., 13., 25., 15., 16., 94., 102., 31., 1., 3., 121., 121.,
          26., 5., 5., 2., 0., 3., 54., 120., 15., 0., 0., 1., 1., 1.,
          60., 2., 2., 64., 65., 0., 0., 5., 3., 12., 30., 121., 52., 0.,
          1., 4., 29., 121., 49., 6., 0., 0., 0., 8., 35., 121., 63., 0.,
          0., 0., 0., 2. ]
      - [ 7., 27., 0., 0., 2., 13., 63., 43., 54., 129., 1., 0., 10.,
          22., 13., 3., 70., 129., 24., 0., 0., 0., 1., 3., 16., 16.,
          20., 9., 0., 0., 0., 9., 0., 0., 0., 0., 19., 32., 42., 22.,
          69., 37., 0., 0., 58., 83., 23., 14., 129., 87., 2., 0., 1.,
          3., 8., 45., 69., 11., 1., 0., 0., 0., 1., 116., 4., 0., 0.,
          0., 6., 11., 4., 3., 46., 16., 1., 0., 8., 37., 90., 82., 129.,
          23., 7., 0., 0., 2., 61., 129., 129., 41., 6., 0., 0., 0., 2.,
          129., 5., 1., 0., 0., 1., 2., 1., 1., 42., 65., 4., 0., 0., 0.,
          2., 10., 25., 114., 50., 0., 0., 0., 4., 11., 53., 129., 111.,
          0., 0., 0., 0., 5. ]
      - [ 24., 10., 0., 1., 63., 10., 0., 0., 121., 105., 11., 13., 48.,
          7., 1., 5., 8., 14., 7., 15., 148., 23., 1., 2., 20., 8., 0.,
          0., 11., 1., 0., 0., 16., 2., 0., 0., 75., 16., 0., 2., 148.,
          23., 2., 1., 41., 24., 13., 70., 23., 4., 2., 2., 148., 93.,
          13., 22., 34., 3., 0., 0., 27., 7., 0., 1., 13., 1., 0., 0.,
          57., 16., 0., 0., 148., 26., 0., 0., 48., 20., 5., 17., 64.,
          6., 0., 0., 148., 103., 7., 8., 28., 6., 0., 0., 53., 16., 0.,
          0., 4., 1., 0., 0., 34., 8., 0., 0., 148., 42., 0., 1., 33.,
          10., 2., 3., 84., 17., 1., 2., 148., 65., 4., 2., 17., 3., 0.,
          0., 79., 18., 0., 0. ]
      - [ 59., 3., 0., 0., 0., 0., 0., 33., 166., 40., 0., 0., 0., 0.,
          0., 13., 166., 70., 0., 0., 0., 0., 0., 0., 28., 6., 0., 0.,
          0., 0., 0., 2., 9., 0., 0., 0., 0., 0., 38., 128., 166., 11.,
          0., 0., 0., 0., 38., 77., 166., 54., 0., 0., 0., 0., 1., 10.,
          55., 11., 0., 0., 0., 0., 0., 2., 10., 0., 0., 0., 0., 0., 66.,
          137., 57., 0., 0., 0., 0., 1., 139., 70., 166., 11., 0., 0.,
          0., 0., 10., 49., 74., 6., 0., 0., 0., 0., 0., 1., 24., 0., 0.,
          0., 0., 0., 14., 46., 10., 0., 0., 0., 0., 2., 51., 20., 119.,
          2., 0., 0., 0., 0., 6., 17., 31., 1., 0., 0., 0., 0., 0., 1. ]
      - [ 12., 47., 8., 2., 9., 7., 2., 2., 13., 32., 5., 1., 5., 14.,
          13., 5., 81., 55., 8., 1., 2., 14., 14., 6., 183., 20., 0., 0.,
          0., 0., 9., 65., 21., 35., 9., 8., 73., 8., 1., 1., 121., 59.,
          8., 3., 4., 8., 10., 17., 117., 17., 8., 21., 40., 23., 16.,
          13., 183., 13., 0., 1., 1., 0., 0., 35., 12., 5., 0., 7., 56.,
          7., 10., 2., 46., 76., 57., 7., 3., 2., 3., 2., 177., 31., 74.,
          37., 14., 0., 0., 21., 183., 51., 0., 1., 0., 0., 0., 42., 0.,
          0., 0., 1., 6., 2., 3., 0., 1., 2., 7., 1., 4., 2., 1., 0.,
          106., 5., 9., 1., 1., 0., 0., 17., 163., 39., 0., 0., 0., 0.,
          0., 16. ]
      - [ 2., 0., 0., 4., 8., 0., 0., 2., 1., 0., 0., 80., 138., 1., 0.,
          2., 100., 0., 0., 40., 103., 5., 3., 138., 71., 0., 0., 0., 0.,
          0., 0., 93., 0., 0., 0., 10., 31., 1., 0., 0., 22., 2., 0.,
          84., 138., 8., 0., 3., 138., 8., 1., 20., 53., 3., 1., 69.,
          61., 2., 0., 0., 0., 0., 0., 24., 0., 0., 0., 1., 33., 8., 0.,
          0., 19., 1., 0., 7., 138., 111., 1., 3., 138., 76., 0., 1.,
          39., 39., 2., 6., 60., 43., 0., 0., 0., 0., 0., 0., 0., 0., 0.,
          0., 5., 6., 0., 0., 1., 0., 0., 0., 85., 114., 0., 0., 59.,
          77., 0., 0., 66., 86., 0., 1., 63., 106., 0., 0., 1., 1., 0.,
          0. ]
      - [ 0., 3., 1., 1., 73., 130., 13., 0., 14., 44., 5., 2., 53., 43.,
          6., 16., 14., 21., 5., 1., 7., 16., 9., 7., 0., 2., 3., 1., 2.,
          33., 11., 0., 4., 0., 0., 60., 130., 39., 2., 3., 76., 3., 0.,
          23., 102., 25., 46., 128., 15., 6., 8., 1., 5., 130., 86., 37.,
          2., 24., 15., 0., 3., 66., 15., 0., 8., 3., 3., 31., 130.,
          106., 21., 4., 130., 30., 0., 7., 32., 58., 56., 58., 88., 17.,
          1., 0., 0., 130., 66., 22., 2., 7., 1., 0., 1., 130., 75., 0.,
          4., 6., 4., 1., 10., 69., 25., 1., 33., 5., 3., 1., 4., 94.,
          75., 21., 50., 31., 5., 0., 1., 14., 12., 13., 10., 6., 3., 0.,
          0., 59., 32., 14. ]
      - [ 39., 111., 78., 0., 0., 1., 1., 11., 17., 82., 101., 61., 52.,
          35., 10., 9., 1., 0., 3., 86., 109., 78., 18., 5., 31., 0., 0.,
          11., 26., 19., 14., 107., 32., 36., 43., 0., 0., 3., 7., 6.,
          126., 72., 35., 8., 8., 27., 41., 105., 16., 11., 10., 18.,
          55., 126., 100., 43., 12., 2., 9., 10., 4., 38., 56., 126.,
          20., 5., 0., 0., 0., 7., 22., 5., 126., 126., 67., 5., 2., 3.,
          6., 17., 11., 66., 126., 59., 36., 40., 11., 7., 1., 4., 102.,
          69., 3., 8., 11., 14., 1., 1., 1., 2., 1., 3., 8., 1., 3., 18.,
          13., 0., 1., 1., 5., 2., 9., 15., 57., 2., 1., 0., 0., 1., 5.,
          3., 25., 7., 0., 0., 0., 1. ]
      - [ 78., 31., 1., 1., 6., 54., 69., 15., 2., 0., 0., 9., 113.,
          117., 47., 4., 3., 1., 1., 4., 40., 27., 61., 47., 2., 3., 0.,
          0., 0., 37., 72., 8., 117., 20., 4., 15., 24., 4., 4., 49.,
          20., 3., 2., 58., 117., 47., 7., 10., 117., 15., 0., 5., 37.,
          20., 71., 107., 28., 4., 0., 0., 0., 105., 117., 22., 16., 19.,
          7., 4., 10., 25., 64., 12., 5., 3., 3., 6., 62., 117., 62., 7.,
          112., 13., 0., 0., 4., 32., 63., 90., 69., 10., 0., 0., 0., 9.,
          22., 39., 0., 95., 68., 0., 0., 23., 43., 1., 0., 48., 39., 0.,
          0., 74., 77., 1., 17., 21., 5., 0., 0., 47., 92., 13., 26.,
          48., 0., 0., 0., 9., 34., 10. ]
      - [ 12., 17., 0., 0., 9., 94., 45., 3., 84., 120., 0., 0., 0., 8.,
          21., 6., 75., 120., 11., 0., 7., 23., 1., 1., 20., 22., 3., 4.,
          75., 120., 5., 1., 3., 3., 2., 2., 37., 120., 120., 4., 50.,
          19., 0., 0., 12., 92., 110., 14., 120., 78., 6., 4., 1., 6.,
          10., 22., 44., 44., 39., 91., 81., 13., 1., 1., 26., 39., 56.,
          35., 17., 30., 50., 10., 25., 30., 26., 26., 35., 77., 98.,
          34., 51., 7., 10., 51., 26., 18., 82., 55., 5., 4., 17., 87.,
          28., 2., 0., 1., 3., 26., 71., 29., 0., 0., 1., 2., 23., 105.,
          61., 19., 1., 1., 7., 10., 4., 21., 64., 91., 14., 5., 8., 3.,
          0., 5., 7., 26., 4., 0., 0., 0. ]
      - [ 0., 72., 106., 11., 12., 6., 0., 0., 0., 75., 112., 28., 81.,
          65., 1., 0., 8., 12., 16., 9., 87., 99., 14., 10., 23., 68.,
          8., 4., 11., 5., 2., 4., 0., 19., 112., 37., 21., 5., 0., 0.,
          5., 75., 104., 52., 17., 1., 2., 4., 50., 59., 36., 10., 47.,
          30., 44., 29., 21., 11., 1., 1., 7., 41., 112., 30., 14., 20.,
          82., 8., 1., 5., 5., 28., 28., 14., 20., 12., 0., 0., 32.,
          112., 112., 34., 2., 0., 0., 0., 59., 106., 98., 93., 9., 1.,
          1., 67., 112., 47., 20., 0., 0., 0., 1., 8., 11., 85., 44., 0.,
          0., 0., 0., 0., 8., 112., 29., 15., 0., 0., 0., 0., 24., 36.,
          22., 112., 23., 1., 1., 3., 1., 2. ]
      - [ 0., 0., 20., 49., 53., 55., 23., 1., 4., 2., 2., 10., 14., 10.,
          14., 16., 16., 30., 10., 7., 4., 16., 12., 6., 14., 30., 26.,
          12., 38., 18., 4., 4., 25., 23., 95., 60., 9., 0., 0., 6.,
          124., 23., 10., 15., 13., 37., 85., 124., 7., 8., 7., 18.,
          124., 124., 76., 29., 28., 35., 16., 4., 23., 8., 2., 3., 54.,
          88., 38., 1., 0., 0., 0., 2., 124., 124., 124., 34., 13., 8.,
          7., 33., 9., 24., 124., 124., 124., 30., 6., 6., 9., 18., 23.,
          15., 28., 1., 0., 1., 19., 20., 10., 2., 0., 0., 2., 6., 7.,
          69., 98., 5., 0., 0., 0., 0., 0., 6., 124., 34., 1., 0., 0.,
          0., 0., 7., 91., 12., 0., 0., 0., 0. ]
      - [ 30., 46., 37., 4., 4., 1., 2., 10., 74., 101., 36., 21., 16.,
          3., 6., 16., 11., 28., 47., 102., 91., 15., 3., 5., 14., 58.,
          51., 22., 4., 2., 2., 3., 32., 16., 20., 18., 52., 12., 4.,
          13., 123., 69., 16., 15., 32., 12., 7., 58., 26., 16., 8., 60.,
          123., 74., 11., 19., 3., 37., 41., 28., 27., 14., 4., 0., 17.,
          22., 71., 75., 25., 2., 0., 2., 123., 123., 47., 47., 26., 1.,
          1., 10., 18., 38., 37., 123., 123., 4., 4., 5., 1., 10., 24.,
          44., 21., 4., 13., 5., 19., 37., 123., 98., 1., 1., 5., 4.,
          123., 123., 43., 19., 4., 3., 6., 19., 17., 16., 11., 34., 34.,
          26., 30., 18., 1., 1., 6., 23., 6., 6., 22., 11. ]
      - [ 2., 0., 0., 12., 17., 0., 1., 6., 103., 0., 0., 1., 3., 0., 1.,
          69., 174., 1., 0., 0., 0., 2., 32., 174., 7., 0., 0., 0., 4.,
          55., 79., 31., 2., 0., 0., 7., 12., 0., 2., 27., 174., 7., 0.,
          0., 0., 0., 3., 51., 174., 26., 0., 0., 0., 2., 2., 25., 34.,
          1., 0., 1., 31., 37., 4., 7., 18., 0., 0., 2., 3., 0., 4., 45.,
          137., 2., 0., 0., 0., 0., 11., 46., 174., 16., 0., 1., 1., 0.,
          0., 10., 47., 3., 1., 10., 53., 5., 0., 1., 28., 0., 0., 0.,
          0., 0., 0., 21., 107., 2., 0., 0., 0., 0., 1., 12., 174., 11.,
          0., 0., 1., 0., 0., 17., 37., 2., 1., 9., 34., 10., 1., 4. ]
      - [ 0., 0., 0., 0., 0., 1., 120., 59., 1., 2., 3., 1., 0., 0.,
          120., 115., 5., 6., 2., 0., 0., 0., 120., 120., 2., 0., 0., 0.,
          0., 0., 120., 107., 3., 2., 0., 5., 25., 19., 120., 103., 7.,
          27., 60., 71., 60., 17., 87., 52., 109., 120., 43., 10., 3.,
          2., 30., 45., 34., 9., 0., 0., 0., 0., 10., 15., 7., 37., 6.,
          9., 60., 11., 3., 6., 14., 8., 7., 20., 120., 75., 21., 30.,
          120., 27., 5., 3., 5., 14., 18., 118., 46., 5., 0., 0., 0., 0.,
          0., 7., 15., 40., 3., 9., 49., 8., 0., 0., 33., 10., 1., 2.,
          55., 18., 5., 22., 84., 0., 0., 0., 0., 1., 3., 60., 19., 1.,
          0., 0., 0., 0., 0., 6. ]
      - [ 0., 0., 0., 1., 20., 0., 0., 0., 10., 1., 0., 0., 3., 0., 0.,
          0., 42., 1., 0., 0., 0., 0., 0., 0., 8., 0., 0., 0., 0., 0.,
          0., 1., 0., 0., 0., 22., 182., 0., 0., 0., 107., 9., 0., 5.,
          30., 1., 0., 2., 182., 6., 0., 0., 0., 0., 0., 10., 85., 2.,
          0., 0., 0., 0., 0., 8., 0., 0., 0., 8., 182., 14., 0., 0.,
          127., 1., 0., 2., 22., 6., 1., 9., 182., 12., 0., 0., 0., 0.,
          0., 11., 88., 19., 0., 0., 0., 0., 0., 2., 0., 0., 0., 8.,
          182., 9., 0., 0., 95., 10., 1., 4., 24., 3., 0., 2., 182., 26.,
          0., 0., 0., 0., 0., 2., 59., 31., 0., 0., 0., 0., 0., 0. ]
      - [ 0., 5., 27., 118., 51., 2., 0., 0., 4., 118., 96., 26., 2., 1.,
          1., 1., 10., 100., 97., 31., 15., 8., 1., 0., 1., 3., 9., 99.,
          118., 3., 0., 0., 0., 0., 1., 29., 118., 49., 4., 0., 13., 20.,
          10., 5., 8., 31., 7., 1., 101., 56., 13., 22., 23., 2., 0., 2.,
          7., 6., 2., 81., 118., 6., 0., 0., 0., 0., 0., 3., 45., 118.,
          45., 1., 8., 0., 0., 0., 18., 118., 29., 5., 65., 7., 2., 47.,
          46., 18., 4., 14., 2., 2., 0., 118., 118., 1., 0., 0., 3., 13.,
          22., 20., 29., 66., 31., 3., 0., 0., 1., 24., 85., 66., 6., 2.,
          4., 0., 0., 58., 107., 10., 4., 7., 0., 0., 0., 88., 98., 0.,
          0., 0. ]
      - [ 7., 1., 2., 13., 9., 1., 4., 17., 1., 1., 13., 53., 37., 9.,
          0., 0., 3., 2., 14., 15., 40., 64., 6., 3., 8., 5., 15., 12.,
          15., 29., 10., 5., 4., 2., 18., 130., 7., 0., 0., 1., 9., 14.,
          117., 136., 7., 0., 0., 0., 92., 50., 82., 26., 6., 6., 18.,
          47., 11., 1., 1., 1., 17., 82., 79., 30., 0., 0., 31., 136.,
          13., 0., 0., 0., 57., 31., 38., 136., 11., 0., 0., 1., 136.,
          136., 34., 4., 0., 1., 10., 53., 35., 96., 42., 4., 6., 83.,
          41., 32., 0., 1., 70., 110., 3., 3., 0., 0., 19., 35., 10.,
          37., 2., 0., 2., 3., 20., 136., 68., 1., 0., 3., 3., 1., 1.,
          101., 63., 1., 0., 1., 0., 0. ]
      - [ 0., 0., 0., 3., 5., 60., 62., 25., 10., 0., 0., 1., 7., 7.,
          59., 131., 8., 0., 0., 34., 75., 16., 27., 45., 0., 0., 0.,
          63., 67., 8., 0., 0., 5., 8., 18., 52., 9., 39., 64., 19., 82.,
          42., 10., 10., 29., 18., 22., 61., 10., 1., 0., 28., 131., 87.,
          4., 6., 0., 0., 0., 14., 57., 43., 0., 0., 30., 12., 44., 121.,
          2., 0., 0., 2., 131., 32., 12., 9., 3., 12., 6., 33., 45., 1.,
          0., 1., 105., 131., 23., 26., 0., 0., 0., 2., 83., 111., 1.,
          0., 53., 3., 3., 23., 2., 0., 0., 7., 131., 29., 5., 2., 0.,
          0., 1., 22., 64., 19., 14., 103., 121., 42., 8., 14., 0., 0.,
          0., 55., 123., 23., 0., 0. ]
      - [ 0., 0., 0., 0., 0., 1., 25., 11., 3., 1., 1., 6., 6., 5., 11.,
          7., 11., 1., 1., 4., 1., 0., 24., 60., 1., 0., 0., 0., 0., 0.,
          88., 73., 0., 0., 0., 0., 1., 20., 136., 35., 26., 3., 1., 3.,
          62., 112., 50., 4., 136., 8., 1., 1., 12., 9., 16., 101., 37.,
          0., 0., 0., 0., 0., 75., 109., 0., 0., 0., 0., 8., 29., 102.,
          22., 18., 2., 0., 0., 136., 136., 21., 1., 136., 31., 0., 0.,
          48., 21., 1., 8., 111., 4., 0., 0., 0., 0., 7., 34., 0., 0.,
          0., 0., 7., 15., 31., 3., 4., 1., 0., 0., 136., 89., 5., 0.,
          136., 25., 0., 0., 77., 24., 0., 2., 132., 9., 0., 0., 0., 0.,
          4., 18. ]
      - [ 0., 0., 1., 14., 79., 0., 0., 0., 35., 5., 0., 32., 169., 2.,
          0., 4., 169., 11., 0., 5., 31., 1., 0., 22., 81., 5., 1., 0.,
          0., 0., 0., 4., 0., 0., 18., 46., 82., 0., 0., 0., 56., 7., 0.,
          64., 169., 12., 2., 5., 169., 50., 1., 7., 31., 3., 1., 10.,
          67., 45., 27., 0., 0., 0., 0., 0., 0., 1., 89., 49., 32., 1.,
          0., 0., 18., 0., 8., 33., 166., 79., 36., 26., 169., 51., 10.,
          0., 8., 17., 30., 69., 20., 58., 92., 0., 0., 0., 0., 0., 0.,
          2., 38., 4., 1., 1., 6., 0., 0., 1., 14., 6., 5., 10., 17., 3.,
          9., 16., 15., 0., 0., 2., 14., 11., 1., 14., 45., 0., 0., 0.,
          3., 1. ]
      - [ 0., 0., 31., 11., 0., 1., 23., 18., 4., 5., 47., 18., 2., 5.,
          19., 9., 20., 10., 16., 8., 8., 6., 29., 39., 6., 1., 0., 1.,
          3., 5., 86., 48., 5., 16., 13., 4., 12., 12., 74., 48., 13.,
          23., 22., 42., 124., 48., 35., 9., 127., 93., 18., 15., 11.,
          4., 10., 38., 34., 7., 14., 2., 2., 2., 20., 26., 33., 124.,
          39., 4., 15., 5., 6., 10., 10., 18., 68., 48., 125., 93., 20.,
          14., 119., 36., 127., 35., 11., 21., 19., 51., 18., 15., 127.,
          24., 0., 0., 0., 1., 10., 27., 127., 48., 0., 1., 2., 4., 2.,
          7., 127., 89., 5., 3., 4., 7., 4., 6., 127., 48., 1., 1., 11.,
          29., 2., 9., 123., 10., 0., 2., 41., 14. ]
      - [ 59., 16., 1., 12., 15., 0., 0., 1., 141., 4., 1., 3., 5., 0.,
          0., 18., 72., 0., 0., 12., 102., 0., 0., 6., 0., 0., 0., 11.,
          57., 0., 0., 0., 97., 27., 3., 7., 9., 0., 0., 4., 141., 35.,
          12., 10., 6., 0., 0., 35., 57., 10., 34., 110., 79., 0., 0.,
          5., 0., 0., 43., 82., 29., 0., 0., 0., 68., 55., 20., 1., 0.,
          0., 0., 3., 87., 141., 141., 13., 0., 0., 0., 2., 6., 23.,
          141., 141., 3., 0., 0., 0., 0., 0., 141., 82., 0., 0., 0., 0.,
          10., 10., 19., 7., 0., 0., 0., 5., 0., 12., 93., 13., 0., 0.,
          0., 0., 0., 2., 125., 22., 0., 0., 0., 0., 0., 0., 75., 19.,
          0., 0., 0., 0. ]
      - [ 26., 0., 0., 3., 24., 1., 0., 2., 153., 12., 2., 5., 24., 1.,
          1., 23., 59., 5., 2., 37., 153., 5., 1., 6., 50., 0., 0., 4.,
          31., 0., 0., 4., 38., 1., 0., 6., 31., 1., 0., 2., 153., 27.,
          5., 14., 34., 0., 0., 23., 68., 10., 5., 78., 153., 1., 0., 3.,
          70., 1., 0., 5., 22., 0., 0., 3., 42., 1., 0., 6., 28., 1., 0.,
          4., 153., 40., 16., 36., 24., 5., 2., 20., 50., 11., 13., 119.,
          153., 6., 1., 4., 75., 0., 0., 3., 8., 0., 0., 5., 44., 0., 0.,
          1., 21., 2., 0., 7., 153., 4., 1., 6., 37., 31., 11., 54., 37.,
          1., 1., 14., 144., 49., 5., 10., 53., 0., 0., 0., 3., 1., 0.,
          7. ]
      - [ 3., 0., 1., 19., 6., 0., 2., 21., 5., 0., 0., 3., 1., 0., 59.,
          76., 7., 0., 0., 0., 0., 20., 141., 66., 0., 0., 0., 0., 0.,
          79., 131., 2., 28., 0., 0., 6., 2., 1., 6., 109., 72., 2., 0.,
          0., 0., 9., 33., 108., 141., 5., 0., 0., 0., 17., 98., 116.,
          16., 0., 0., 0., 1., 141., 141., 16., 72., 0., 0., 3., 2., 4.,
          9., 136., 55., 5., 3., 18., 8., 35., 27., 30., 141., 30., 1.,
          1., 1., 2., 4., 9., 56., 5., 0., 0., 0., 43., 14., 3., 60., 3.,
          2., 10., 11., 0., 0., 41., 40., 9., 6., 40., 29., 6., 2., 3.,
          141., 29., 2., 2., 0., 0., 1., 2., 56., 6., 1., 0., 0., 0., 0.,
          0. ]
      - [ 0., 0., 0., 0., 89., 13., 2., 0., 40., 0., 0., 0., 157., 39.,
          1., 5., 157., 6., 0., 0., 9., 6., 1., 8., 47., 2., 0., 0., 0.,
          0., 0., 4., 0., 0., 0., 1., 110., 6., 0., 0., 33., 7., 3., 32.,
          157., 30., 1., 3., 157., 23., 3., 9., 13., 5., 1., 7., 73., 3.,
          0., 0., 0., 0., 0., 2., 0., 0., 0., 1., 105., 6., 0., 0., 41.,
          2., 1., 10., 157., 22., 0., 6., 157., 4., 1., 3., 20., 5., 0.,
          17., 76., 0., 0., 0., 0., 0., 0., 2., 0., 0., 0., 1., 77., 4.,
          0., 0., 31., 1., 0., 0., 157., 18., 1., 2., 157., 5., 0., 0.,
          17., 2., 0., 6., 59., 2., 0., 0., 0., 0., 0., 1. ]
      - [ 16., 2., 1., 6., 23., 0., 0., 0., 166., 3., 0., 2., 40., 5.,
          2., 21., 26., 2., 0., 6., 166., 21., 2., 6., 12., 7., 0., 1.,
          25., 1., 0., 0., 23., 3., 3., 8., 24., 0., 0., 1., 166., 12.,
          1., 4., 51., 4., 2., 16., 37., 3., 0., 14., 166., 16., 2., 4.,
          14., 10., 1., 3., 37., 0., 0., 0., 28., 3., 3., 10., 19., 0.,
          0., 0., 166., 12., 0., 8., 50., 5., 0., 14., 39., 4., 0., 26.,
          166., 14., 0., 4., 11., 15., 1., 6., 35., 0., 0., 0., 18., 6.,
          2., 11., 15., 0., 0., 0., 166., 72., 42., 23., 28., 2., 0., 4.,
          20., 17., 43., 89., 166., 4., 0., 1., 5., 19., 7., 8., 21., 0.,
          0., 0. ]
      - [ 40., 10., 0., 0., 0., 0., 0., 7., 125., 21., 3., 2., 1., 0.,
          8., 125., 29., 10., 7., 84., 75., 19., 42., 81., 0., 0., 0.,
          79., 111., 23., 4., 0., 73., 11., 0., 0., 0., 0., 1., 19.,
          125., 50., 8., 13., 3., 0., 0., 23., 34., 24., 16., 125., 97.,
          3., 2., 1., 0., 0., 0., 105., 57., 4., 22., 6., 30., 3., 2.,
          0., 0., 0., 9., 125., 113., 10., 25., 23., 15., 0., 2., 107.,
          14., 10., 21., 65., 97., 21., 29., 10., 3., 6., 2., 9., 12.,
          11., 125., 33., 8., 5., 22., 24., 13., 1., 7., 44., 10., 12.,
          125., 54., 4., 0., 0., 12., 15., 81., 100., 29., 4., 1., 4.,
          4., 10., 60., 39., 10., 0., 1., 15., 7. ]
      - [ 0., 5., 93., 2., 0., 0., 0., 0., 0., 19., 69., 16., 8., 0., 0.,
          0., 0., 1., 5., 50., 79., 0., 0., 0., 0., 0., 8., 29., 19., 0.,
          0., 0., 11., 28., 151., 1., 0., 0., 1., 2., 79., 82., 55., 5.,
          8., 0., 0., 3., 10., 7., 2., 41., 103., 0., 0., 0., 0., 0., 6.,
          30., 28., 0., 0., 0., 20., 7., 11., 0., 0., 4., 151., 38.,
          112., 8., 1., 1., 8., 9., 87., 90., 11., 1., 0., 12., 89., 62.,
          54., 6., 0., 0., 2., 10., 25., 30., 54., 0., 0., 0., 12., 0.,
          0., 17., 151., 12., 2., 0., 14., 1., 0., 18., 151., 54., 0.,
          0., 10., 2., 4., 110., 151., 3., 0., 0., 5., 1., 1., 64., 151.,
          0. ]
      - [ 0., 0., 0., 0., 70., 9., 0., 0., 47., 8., 0., 0., 145., 23.,
          0., 0., 145., 35., 0., 0., 18., 1., 0., 0., 44., 6., 0., 0.,
          0., 0., 0., 1., 0., 0., 0., 2., 71., 10., 0., 0., 41., 5., 0.,
          0., 145., 53., 4., 6., 145., 32., 0., 0., 29., 8., 4., 22.,
          69., 11., 4., 0., 0., 0., 0., 2., 0., 10., 115., 28., 25., 4.,
          0., 0., 7., 9., 64., 15., 111., 98., 33., 19., 109., 24., 40.,
          2., 8., 22., 35., 89., 29., 18., 82., 3., 0., 0., 0., 3., 0.,
          55., 145., 54., 8., 5., 0., 0., 1., 99., 145., 9., 2., 4., 2.,
          1., 33., 70., 86., 2., 0., 1., 3., 10., 6., 8., 57., 3., 0.,
          1., 18., 8. ]
      - [ 21., 3., 2., 34., 42., 4., 10., 16., 43., 17., 5., 6., 2., 1.,
          1., 14., 35., 66., 18., 15., 6., 1., 2., 4., 61., 124., 52.,
          3., 1., 1., 2., 0., 21., 4., 1., 8., 35., 25., 61., 29., 27.,
          22., 16., 49., 57., 8., 6., 9., 115., 49., 17., 14., 5., 15.,
          66., 76., 9., 67., 35., 4., 11., 97., 104., 20., 41., 36., 10.,
          30., 57., 9., 5., 5., 28., 12., 5., 27., 122., 29., 1., 2.,
          124., 124., 115., 13., 13., 8., 16., 35., 45., 80., 124., 53.,
          31., 59., 34., 32., 16., 10., 4., 17., 18., 3., 1., 13., 0.,
          1., 2., 49., 87., 12., 3., 0., 12., 49., 58., 22., 35., 24.,
          21., 10., 124., 50., 58., 4., 0., 1., 4., 124. ]
      - [ 1., 0., 0., 0., 124., 84., 33., 10., 16., 1., 0., 3., 124.,
          63., 3., 21., 53., 3., 1., 1., 4., 4., 79., 124., 2., 0., 0.,
          1., 15., 28., 124., 27., 7., 0., 0., 0., 124., 54., 0., 2.,
          46., 3., 0., 0., 124., 124., 4., 10., 124., 24., 0., 2., 10.,
          14., 11., 47., 18., 4., 0., 20., 83., 10., 13., 6., 9., 0., 0.,
          0., 124., 47., 0., 1., 8., 0., 0., 0., 74., 124., 41., 16.,
          90., 4., 0., 2., 9., 24., 45., 88., 11., 1., 0., 21., 104., 0.,
          0., 4., 9., 0., 0., 0., 124., 20., 0., 1., 2., 3., 0., 1., 44.,
          13., 11., 3., 3., 3., 0., 4., 11., 2., 12., 15., 0., 0., 0.,
          17., 95., 0., 0., 1. ]
      - [ 1., 0., 0., 40., 143., 0., 0., 0., 117., 0., 0., 14., 84., 0.,
          0., 19., 72., 0., 0., 1., 9., 0., 0., 11., 0., 0., 0., 6.,
          143., 8., 0., 0., 4., 0., 0., 50., 143., 0., 0., 1., 143., 11.,
          6., 12., 74., 0., 0., 19., 54., 9., 46., 46., 4., 0., 0., 6.,
          0., 0., 16., 115., 126., 0., 0., 0., 3., 2., 0., 46., 143., 2.,
          1., 0., 49., 46., 33., 14., 49., 2., 11., 6., 7., 11., 96.,
          81., 2., 7., 24., 1., 0., 0., 22., 89., 47., 29., 9., 0., 2.,
          0., 0., 28., 143., 4., 3., 7., 7., 2., 2., 2., 21., 4., 53.,
          44., 0., 0., 3., 3., 1., 15., 107., 6., 0., 0., 0., 1., 16.,
          90., 33., 0. ]
      - [ 35., 0., 0., 1., 27., 1., 0., 0., 144., 1., 0., 0., 3., 2., 1.,
          9., 136., 25., 0., 1., 3., 5., 2., 9., 138., 32., 4., 3., 1.,
          1., 0., 2., 43., 0., 0., 1., 29., 2., 0., 1., 144., 4., 0., 2.,
          4., 7., 4., 20., 122., 37., 9., 19., 14., 28., 8., 15., 144.,
          105., 5., 2., 2., 3., 3., 3., 41., 1., 0., 2., 21., 1., 0., 0.,
          144., 17., 2., 13., 14., 1., 0., 2., 43., 58., 34., 93., 66.,
          4., 0., 1., 82., 144., 22., 5., 1., 0., 0., 1., 31., 1., 0.,
          1., 11., 1., 0., 1., 144., 1., 0., 1., 19., 7., 0., 8., 30.,
          4., 1., 8., 92., 43., 13., 17., 126., 24., 1., 1., 2., 3., 13.,
          60. ]
      - [ 1., 2., 4., 2., 24., 9., 1., 1., 8., 0., 0., 20., 137., 4., 0.,
          2., 137., 0., 0., 5., 53., 0., 0., 63., 45., 0., 0., 0., 0.,
          0., 1., 51., 0., 30., 28., 11., 26., 0., 0., 0., 22., 2., 4.,
          39., 137., 0., 0., 2., 137., 2., 0., 4., 48., 0., 0., 36., 58.,
          1., 0., 0., 0., 0., 1., 57., 0., 51., 137., 24., 5., 0., 0.,
          0., 20., 15., 65., 137., 100., 0., 0., 0., 137., 132., 17.,
          16., 17., 0., 0., 8., 42., 83., 61., 0., 0., 0., 0., 15., 0.,
          11., 70., 6., 0., 0., 0., 0., 2., 9., 31., 50., 13., 0., 0.,
          0., 15., 128., 34., 6., 4., 0., 0., 0., 1., 102., 129., 0., 0.,
          0., 0., 0. ]
      - [ 0., 0., 0., 0., 40., 15., 0., 0., 31., 3., 0., 5., 124., 7.,
          0., 0., 138., 9., 0., 2., 12., 0., 0., 2., 35., 21., 4., 3.,
          0., 0., 0., 2., 0., 0., 0., 20., 63., 15., 0., 0., 40., 7., 2.,
          81., 130., 2., 0., 3., 138., 36., 7., 13., 10., 0., 0., 7.,
          30., 19., 19., 28., 0., 0., 1., 30., 0., 0., 0., 90., 108.,
          15., 1., 1., 38., 1., 0., 96., 62., 1., 4., 73., 137., 15., 4.,
          4., 1., 0., 1., 138., 13., 6., 5., 5., 0., 0., 17., 138., 0.,
          0., 0., 96., 57., 3., 16., 19., 12., 0., 0., 9., 10., 2., 31.,
          138., 18., 0., 0., 0., 0., 0., 8., 138., 1., 0., 0., 0., 0.,
          0., 16., 138. ]
      - [ 2., 3., 1., 40., 144., 0., 0., 0., 23., 49., 48., 12., 14., 4.,
          7., 5., 2., 9., 55., 84., 49., 12., 5., 1., 144., 0., 0., 16.,
          27., 1., 0., 18., 5., 1., 0., 8., 144., 5., 0., 2., 57., 12.,
          7., 5., 21., 22., 34., 54., 6., 2., 8., 22., 91., 101., 30.,
          9., 144., 0., 0., 4., 28., 7., 0., 28., 4., 3., 1., 17., 144.,
          4., 0., 0., 46., 62., 60., 28., 21., 2., 1., 6., 9., 11., 55.,
          122., 80., 11., 1., 2., 144., 0., 1., 17., 20., 1., 0., 35.,
          0., 0., 0., 18., 144., 2., 0., 0., 0., 3., 17., 18., 47., 5.,
          0., 0., 13., 1., 19., 35., 21., 1., 0., 4., 144., 0., 0., 3.,
          0., 0., 0., 43. ]
      - [ 0., 1., 3., 27., 124., 20., 2., 0., 13., 49., 10., 3., 46., 6.,
          14., 22., 11., 38., 39., 12., 7., 5., 26., 22., 1., 1., 4.,
          16., 38., 22., 16., 12., 9., 9., 54., 72., 34., 3., 3., 4.,
          92., 15., 3., 4., 15., 6., 87., 140., 17., 1., 0., 0., 1., 30.,
          140., 70., 1., 0., 0., 0., 4., 114., 140., 9., 23., 31., 23.,
          13., 2., 0., 0., 0., 140., 53., 2., 0., 0., 0., 9., 47., 120.,
          3., 0., 0., 3., 15., 116., 88., 0., 0., 0., 13., 102., 90.,
          91., 9., 14., 8., 3., 2., 2., 0., 0., 0., 140., 6., 1., 0., 0.,
          0., 0., 32., 68., 0., 0., 0., 5., 3., 6., 55., 0., 0., 0., 8.,
          104., 9., 3., 4. ]
      - [ 9., 3., 4., 131., 35., 0., 0., 5., 53., 3., 1., 28., 6., 0.,
          4., 75., 9., 0., 0., 4., 26., 29., 30., 50., 2., 2., 0., 5.,
          52., 40., 11., 8., 17., 3., 4., 60., 31., 34., 17., 5., 131.,
          18., 6., 8., 0., 2., 3., 26., 32., 13., 12., 85., 32., 4., 3.,
          9., 33., 11., 3., 13., 24., 13., 49., 80., 5., 0., 0., 0., 13.,
          131., 99., 9., 44., 30., 21., 17., 9., 75., 24., 8., 32., 19.,
          27., 91., 4., 7., 11., 46., 131., 17., 3., 4., 0., 0., 3.,
          131., 3., 0., 0., 0., 23., 113., 32., 15., 0., 0., 1., 1., 18.,
          131., 98., 2., 37., 3., 1., 3., 1., 27., 92., 131., 93., 11.,
          0., 0., 0., 0., 2., 131. ]
      - [ 3., 0., 0., 0., 1., 5., 23., 23., 15., 0., 0., 0., 2., 15.,
          18., 55., 129., 0., 0., 0., 6., 32., 9., 23., 158., 0., 0., 0.,
          0., 0., 0., 23., 25., 0., 0., 0., 5., 16., 7., 16., 100., 2.,
          0., 0., 4., 30., 17., 58., 141., 0., 0., 0., 14., 97., 20.,
          43., 158., 1., 0., 0., 0., 1., 1., 44., 29., 8., 0., 0., 8.,
          23., 4., 8., 157., 36., 0., 0., 6., 16., 3., 9., 120., 10., 0.,
          0., 12., 62., 28., 53., 158., 2., 0., 0., 0., 1., 5., 62., 9.,
          18., 1., 1., 5., 6., 22., 6., 83., 36., 0., 0., 3., 2., 21.,
          11., 141., 35., 0., 0., 0., 3., 10., 48., 158., 4., 0., 0., 0.,
          0., 1., 46. ]
      - [ 3., 1., 22., 127., 3., 0., 0., 7., 33., 6., 22., 68., 0., 0.,
          3., 39., 33., 8., 3., 3., 0., 1., 59., 127., 71., 11., 0., 0.,
          0., 0., 24., 127., 17., 3., 6., 107., 9., 0., 0., 6., 93., 61.,
          15., 7., 2., 0., 1., 22., 127., 95., 3., 0., 0., 0., 13., 92.,
          50., 70., 13., 0., 0., 0., 9., 81., 41., 11., 2., 24., 12., 1.,
          0., 8., 77., 13., 4., 2., 7., 2., 5., 67., 127., 81., 13., 0.,
          0., 0., 1., 58., 34., 110., 49., 0., 0., 0., 10., 15., 18., 3.,
          0., 2., 4., 10., 60., 82., 16., 1., 0., 0., 0., 15., 87., 127.,
          26., 24., 15., 17., 19., 17., 20., 56., 1., 89., 123., 37.,
          25., 5., 2., 0. ]
      - [ 3., 94., 74., 23., 1., 0., 0., 0., 2., 32., 56., 50., 2., 0.,
          0., 0., 43., 50., 19., 2., 1., 0., 1., 6., 15., 3., 1., 87.,
          67., 1., 3., 5., 40., 126., 25., 13., 1., 0., 0., 0., 39., 58.,
          29., 41., 7., 0., 0., 1., 126., 39., 6., 22., 18., 0., 0., 9.,
          15., 2., 1., 126., 126., 2., 0., 3., 76., 78., 4., 10., 7., 0.,
          0., 0., 100., 47., 3., 6., 6., 0., 0., 14., 126., 17., 12.,
          100., 26., 0., 0., 16., 3., 2., 13., 126., 126., 21., 6., 0.,
          68., 31., 1., 3., 15., 1., 0., 0., 120., 39., 2., 7., 3., 0.,
          0., 8., 28., 8., 19., 126., 49., 0., 0., 5., 0., 10., 73.,
          126., 16., 2., 1., 0. ]
      - [ 13., 2., 0., 1., 2., 2., 3., 36., 43., 0., 0., 0., 0., 0., 0.,
          54., 19., 0., 0., 0., 0., 0., 0., 8., 0., 0., 0., 0., 0., 0.,
          0., 0., 45., 1., 0., 0., 0., 1., 14., 140., 140., 3., 0., 0.,
          0., 0., 10., 135., 140., 24., 0., 0., 0., 0., 0., 35., 51., 4.,
          0., 0., 0., 0., 0., 12., 63., 1., 0., 0., 0., 1., 25., 138.,
          90., 2., 0., 0., 0., 0., 39., 140., 140., 47., 0., 0., 0., 0.,
          6., 85., 126., 54., 4., 0., 0., 0., 0., 13., 81., 12., 1., 0.,
          0., 0., 6., 38., 140., 3., 0., 0., 0., 0., 2., 106., 76., 14.,
          0., 0., 0., 0., 15., 130., 63., 61., 2., 1., 0., 0., 7., 13. ]
      - [ 31., 1., 0., 2., 3., 0., 0., 4., 170., 0., 0., 0., 0., 0., 0.,
          38., 147., 1., 0., 0., 0., 0., 8., 61., 7., 2., 0., 1., 1., 1.,
          29., 43., 44., 2., 0., 0., 1., 0., 1., 5., 170., 46., 9., 0.,
          0., 0., 0., 31., 161., 65., 98., 0., 0., 0., 0., 21., 10., 25.,
          149., 8., 2., 0., 2., 7., 19., 7., 0., 0., 0., 0., 2., 5.,
          102., 148., 79., 0., 0., 0., 0., 3., 15., 73., 170., 4., 0.,
          0., 0., 0., 0., 5., 170., 17., 0., 0., 0., 0., 3., 2., 0., 0.,
          0., 0., 2., 6., 3., 10., 12., 0., 0., 0., 1., 6., 1., 7., 37.,
          0., 0., 0., 0., 2., 1., 3., 27., 1., 0., 0., 1., 2. ]
      - [ 2., 0., 48., 9., 10., 103., 84., 9., 2., 11., 66., 1., 1., 23.,
          78., 34., 12., 31., 64., 0., 0., 1., 105., 86., 88., 65., 15.,
          0., 0., 3., 46., 40., 29., 0., 0., 7., 129., 104., 32., 16.,
          26., 23., 15., 19., 39., 31., 51., 29., 129., 38., 3., 2., 4.,
          4., 67., 78., 44., 9., 2., 12., 27., 20., 50., 22., 29., 0.,
          0., 4., 129., 60., 7., 23., 38., 7., 4., 13., 59., 49., 23.,
          13., 129., 13., 1., 3., 14., 3., 5., 42., 44., 6., 1., 15.,
          72., 5., 1., 4., 22., 8., 5., 96., 129., 10., 0., 2., 56., 13.,
          21., 71., 42., 6., 0., 3., 129., 7., 2., 4., 20., 4., 1., 35.,
          30., 1., 0., 9., 68., 9., 1., 5. ]
      - [ 3., 3., 2., 0., 0., 0., 0., 1., 34., 2., 0., 0., 0., 0., 1.,
          37., 64., 0., 0., 0., 0., 0., 86., 142., 3., 0., 0., 0., 4.,
          26., 142., 101., 8., 1., 0., 0., 0., 0., 6., 10., 125., 3., 0.,
          0., 0., 0., 14., 60., 142., 29., 0., 0., 0., 0., 12., 107.,
          45., 10., 1., 1., 18., 13., 30., 31., 1., 0., 0., 0., 0., 0.,
          142., 105., 24., 1., 0., 0., 2., 3., 142., 142., 142., 61., 1.,
          1., 4., 2., 28., 73., 56., 43., 8., 5., 9., 1., 0., 0., 10.,
          0., 0., 0., 0., 0., 71., 67., 0., 0., 0., 1., 23., 13., 55.,
          27., 66., 67., 5., 6., 52., 9., 5., 2., 63., 60., 6., 3., 1.,
          0., 0., 0. ]
      - [ 0., 0., 1., 11., 50., 9., 1., 0., 2., 5., 2., 1., 4., 5., 13.,
          12., 33., 56., 16., 2., 5., 17., 12., 9., 26., 86., 136., 50.,
          18., 8., 6., 12., 8., 6., 30., 13., 10., 6., 1., 3., 72., 5.,
          3., 1., 6., 20., 49., 108., 6., 2., 4., 3., 97., 119., 52.,
          26., 0., 4., 34., 58., 79., 12., 0., 0., 36., 27., 33., 11.,
          12., 7., 3., 5., 136., 45., 3., 0., 18., 13., 6., 31., 45., 6.,
          0., 14., 136., 66., 6., 8., 0., 0., 1., 60., 136., 5., 0., 0.,
          16., 2., 0., 0., 5., 26., 136., 20., 136., 47., 8., 7., 8.,
          10., 81., 27., 31., 24., 15., 103., 136., 14., 7., 1., 0., 0.,
          1., 46., 104., 4., 11., 4. ]
      - [ 0., 2., 12., 1., 0., 0., 0., 0., 17., 4., 8., 1., 0., 0., 0.,
          10., 21., 1., 0., 0., 0., 5., 59., 87., 0., 0., 0., 2., 18.,
          75., 71., 14., 1., 29., 29., 1., 0., 0., 0., 0., 93., 14., 7.,
          3., 0., 0., 0., 17., 145., 23., 0., 0., 5., 21., 54., 145.,
          21., 6., 0., 1., 76., 145., 73., 35., 10., 27., 16., 0., 0.,
          9., 30., 26., 81., 13., 4., 0., 0., 0., 4., 120., 145., 79.,
          0., 1., 6., 5., 1., 48., 79., 27., 0., 2., 130., 86., 4., 8.,
          22., 0., 0., 0., 0., 3., 16., 51., 28., 3., 0., 1., 2., 1., 4.,
          102., 145., 66., 3., 2., 2., 1., 1., 23., 88., 32., 8., 34.,
          112., 17., 1., 8. ]
      - [ 5., 31., 114., 1., 2., 21., 69., 3., 2., 29., 125., 0., 1., 8.,
          137., 12., 2., 10., 103., 9., 3., 16., 137., 10., 0., 5., 65.,
          3., 1., 24., 123., 0., 14., 39., 137., 7., 3., 0., 0., 0.,
          124., 71., 137., 0., 0., 0., 11., 41., 16., 14., 101., 6., 1.,
          27., 77., 28., 1., 8., 80., 1., 0., 10., 78., 15., 42., 6., 5.,
          5., 16., 3., 0., 0., 137., 25., 1., 0., 0., 0., 4., 25., 63.,
          10., 2., 2., 5., 19., 51., 30., 15., 5., 1., 0., 1., 9., 59.,
          31., 32., 2., 2., 5., 4., 1., 0., 0., 137., 12., 0., 0., 0.,
          0., 0., 16., 84., 5., 1., 4., 3., 5., 32., 35., 4., 5., 2., 4.,
          3., 7., 32., 6. ]
      - [ 13., 5., 7., 15., 37., 16., 7., 17., 11., 5., 8., 7., 2., 8.,
          50., 18., 140., 24., 2., 0., 0., 1., 10., 40., 41., 27., 27.,
          35., 6., 0., 0., 3., 18., 0., 0., 1., 49., 139., 21., 28., 27.,
          5., 5., 24., 12., 18., 22., 16., 152., 15., 4., 4., 2., 3., 5.,
          41., 16., 6., 9., 24., 44., 9., 3., 9., 5., 0., 0., 0., 25.,
          158., 90., 10., 15., 1., 0., 3., 34., 158., 36., 6., 106., 45.,
          7., 4., 5., 15., 7., 17., 9., 15., 17., 50., 29., 4., 1., 2.,
          25., 26., 4., 4., 123., 158., 22., 5., 1., 0., 0., 0., 158.,
          158., 10., 2., 20., 4., 1., 2., 14., 24., 19., 40., 6., 3., 3.,
          14., 38., 23., 4., 8. ]
      - [ 0., 11., 59., 3., 0., 0., 0., 0., 26., 53., 41., 0., 0., 0.,
          0., 0., 158., 46., 2., 0., 0., 0., 0., 3., 36., 1., 0., 2.,
          14., 0., 0., 3., 1., 38., 123., 1., 0., 0., 1., 2., 43., 79.,
          126., 1., 0., 0., 1., 3., 158., 101., 10., 0., 0., 0., 0., 6.,
          57., 2., 0., 3., 27., 2., 1., 4., 2., 8., 13., 0., 0., 1., 21.,
          15., 97., 12., 19., 1., 0., 0., 12., 31., 158., 15., 1., 0.,
          0., 0., 0., 35., 58., 5., 3., 31., 29., 0., 0., 2., 0., 0., 0.,
          0., 0., 10., 158., 6., 41., 0., 0., 0., 0., 5., 158., 57.,
          158., 0., 0., 1., 2., 0., 28., 115., 24., 1., 1., 42., 71., 0.,
          0., 4. ]
      - [ 0., 3., 19., 4., 3., 49., 128., 0., 1., 2., 20., 18., 3., 19.,
          128., 6., 3., 1., 9., 11., 3., 10., 128., 30., 0., 0., 5., 6.,
          3., 25., 128., 12., 1., 0., 0., 5., 22., 37., 128., 2., 10.,
          15., 20., 72., 125., 40., 128., 7., 128., 63., 21., 16., 10.,
          16., 105., 42., 16., 2., 2., 5., 53., 104., 73., 6., 1., 2.,
          52., 33., 32., 3., 2., 0., 12., 4., 14., 50., 128., 65., 19.,
          19., 128., 39., 38., 7., 11., 16., 19., 54., 16., 9., 77., 29.,
          17., 38., 8., 1., 9., 11., 84., 19., 3., 1., 3., 4., 7., 5.,
          22., 23., 15., 9., 30., 7., 4., 8., 28., 5., 2., 3., 55., 7.,
          0., 1., 38., 12., 0., 0., 39., 3. ]
      - [ 30., 0., 0., 0., 19., 17., 0., 4., 151., 21., 0., 5., 34., 6.,
          0., 14., 43., 6., 0., 16., 151., 27., 0., 5., 89., 0., 0., 1.,
          21., 4., 2., 10., 30., 1., 0., 0., 31., 18., 0., 2., 151., 25.,
          1., 5., 35., 6., 1., 18., 53., 7., 1., 18., 151., 28., 1., 6.,
          120., 0., 0., 1., 30., 4., 1., 10., 25., 0., 0., 0., 34., 13.,
          1., 3., 151., 21., 3., 4., 28., 6., 2., 21., 51., 7., 3., 19.,
          151., 24., 1., 5., 128., 4., 0., 1., 31., 3., 1., 3., 15., 1.,
          0., 1., 26., 6., 0., 1., 151., 24., 0., 6., 20., 3., 1., 11.,
          37., 9., 0., 25., 151., 14., 1., 3., 107., 6., 0., 2., 27., 1.,
          0., 0. ]
      - [ 19., 33., 55., 1., 0., 20., 72., 30., 17., 91., 111., 1., 11.,
          61., 55., 1., 88., 105., 21., 2., 35., 27., 2., 4., 38., 28.,
          0., 0., 22., 18., 1., 1., 122., 60., 1., 3., 11., 15., 42.,
          24., 51., 12., 1., 10., 122., 83., 39., 5., 122., 22., 0., 1.,
          56., 34., 5., 21., 45., 24., 0., 0., 68., 47., 2., 2., 122.,
          110., 3., 4., 10., 1., 0., 0., 39., 26., 3., 8., 108., 55.,
          29., 21., 122., 11., 0., 0., 25., 25., 26., 90., 36., 12., 0.,
          0., 94., 52., 0., 5., 107., 47., 0., 0., 3., 9., 2., 2., 88.,
          24., 0., 0., 2., 9., 34., 40., 12., 0., 5., 1., 2., 4., 25.,
          82., 7., 2., 5., 1., 63., 42., 1., 7. ]
      - [ 3., 2., 1., 31., 152., 24., 0., 1., 46., 0., 0., 7., 95., 17.,
          2., 10., 152., 0., 0., 0., 1., 1., 0., 27., 45., 0., 0., 4.,
          36., 0., 0., 3., 1., 1., 1., 61., 152., 10., 0., 0., 65., 0.,
          0., 18., 61., 13., 1., 9., 152., 0., 0., 0., 0., 1., 0., 25.,
          46., 0., 0., 6., 51., 0., 0., 2., 0., 0., 0., 11., 152., 17.,
          0., 0., 72., 10., 6., 25., 48., 9., 0., 5., 152., 23., 1., 0.,
          0., 0., 0., 13., 36., 5., 1., 8., 57., 0., 0., 1., 0., 0., 0.,
          13., 152., 3., 0., 0., 36., 28., 5., 20., 60., 1., 1., 4.,
          127., 152., 9., 0., 0., 0., 2., 5., 10., 67., 23., 12., 31.,
          0., 0., 0. ]
      - [ 51., 20., 0., 0., 0., 0., 0., 2., 79., 24., 0., 0., 0., 0., 3.,
          14., 6., 1., 3., 1., 0., 2., 26., 61., 3., 4., 14., 4., 10.,
          37., 47., 28., 50., 12., 1., 0., 0., 0., 0., 4., 126., 16., 0.,
          0., 3., 4., 21., 110., 17., 3., 10., 27., 83., 27., 48., 74.,
          13., 57., 64., 35., 33., 8., 6., 8., 39., 23., 10., 10., 0.,
          0., 0., 1., 126., 126., 1., 1., 7., 4., 2., 25., 52., 42., 1.,
          9., 126., 93., 5., 9., 3., 50., 29., 21., 118., 44., 0., 0.,
          10., 11., 6., 7., 0., 0., 5., 7., 126., 126., 0., 0., 0., 0.,
          7., 10., 120., 115., 0., 0., 65., 77., 1., 1., 3., 8., 3., 3.,
          126., 126., 0., 0. ]
      - [ 17., 41., 17., 58., 18., 0., 0., 0., 125., 125., 6., 1., 0.,
          0., 0., 0., 39., 25., 5., 1., 0., 0., 0., 0., 0., 0., 11., 3.,
          0., 0., 0., 0., 31., 22., 14., 96., 23., 0., 0., 15., 125.,
          99., 12., 7., 0., 0., 0., 40., 68., 34., 101., 37., 0., 0., 0.,
          1., 0., 0., 125., 37., 0., 0., 0., 0., 40., 0., 2., 38., 7.,
          2., 68., 105., 125., 12., 6., 10., 6., 6., 16., 103., 24., 9.,
          87., 76., 30., 36., 76., 12., 0., 1., 112., 27., 2., 2., 125.,
          31., 1., 0., 0., 0., 7., 16., 125., 44., 60., 2., 0., 0., 8.,
          14., 38., 51., 42., 2., 0., 0., 2., 17., 96., 35., 1., 0., 0.,
          0., 0., 1., 116., 28. ]
      - [ 7., 9., 0., 0., 0., 3., 16., 7., 35., 103., 22., 7., 0., 5.,
          6., 3., 23., 24., 38., 51., 8., 32., 33., 17., 9., 0., 11.,
          23., 9., 59., 19., 9., 18., 2., 0., 0., 1., 8., 22., 52., 73.,
          9., 0., 1., 17., 52., 40., 26., 134., 13., 0., 0., 8., 67.,
          69., 119., 14., 3., 1., 1., 89., 134., 46., 21., 40., 27., 16.,
          3., 2., 2., 3., 25., 46., 35., 25., 49., 57., 19., 5., 8.,
          134., 134., 44., 16., 18., 20., 7., 28., 24., 59., 64., 102.,
          134., 96., 6., 7., 1., 10., 52., 18., 0., 0., 0., 0., 1., 12.,
          68., 45., 3., 0., 0., 0., 12., 129., 86., 12., 1., 0., 0., 2.,
          7., 33., 102., 87., 14., 1., 1., 3. ]
      - [ 8., 3., 8., 7., 4., 2., 11., 14., 65., 3., 4., 1., 1., 0., 5.,
          137., 95., 1., 0., 28., 53., 1., 2., 137., 4., 0., 1., 49.,
          108., 6., 1., 2., 45., 8., 9., 38., 7., 1., 2., 7., 137., 21.,
          5., 8., 5., 1., 1., 137., 53., 5., 5., 137., 126., 3., 3., 77.,
          1., 4., 13., 97., 67., 1., 2., 3., 55., 19., 15., 6., 1., 1.,
          1., 10., 137., 68., 52., 56., 2., 0., 0., 16., 27., 23., 81.,
          137., 29., 0., 0., 2., 17., 8., 9., 42., 14., 1., 5., 11., 22.,
          3., 4., 6., 5., 6., 35., 55., 48., 17., 57., 96., 8., 1., 3.,
          21., 47., 29., 54., 54., 0., 0., 0., 3., 39., 11., 8., 8., 0.,
          0., 0., 6. ]
      - [ 5., 3., 0., 1., 2., 15., 50., 35., 1., 1., 1., 2., 2., 57.,
          120., 29., 14., 7., 2., 2., 19., 23., 90., 105., 5., 2., 0.,
          44., 104., 16., 11., 13., 10., 4., 19., 24., 0., 0., 12., 96.,
          22., 16., 63., 101., 4., 13., 34., 28., 120., 30., 18., 11.,
          38., 53., 29., 51., 4., 0., 0., 6., 120., 120., 7., 6., 3., 4.,
          55., 102., 1., 0., 0., 6., 77., 26., 39., 107., 1., 0., 0., 1.,
          120., 90., 40., 36., 23., 17., 5., 26., 11., 8., 19., 114.,
          120., 58., 3., 5., 0., 0., 9., 54., 1., 0., 0., 0., 17., 27.,
          4., 14., 2., 0., 0., 0., 28., 91., 93., 34., 1., 0., 0., 0.,
          0., 5., 45., 97., 14., 0., 0., 0. ]
      - [ 20., 0., 0., 6., 3., 1., 3., 132., 26., 0., 1., 4., 12., 5.,
          7., 132., 48., 1., 0., 0., 1., 2., 17., 132., 6., 1., 0., 0.,
          0., 7., 71., 76., 39., 10., 37., 38., 6., 1., 2., 132., 122.,
          26., 25., 15., 15., 5., 6., 132., 78., 10., 13., 6., 7., 7.,
          1., 132., 7., 49., 23., 2., 2., 2., 2., 9., 23., 10., 19., 75.,
          36., 10., 19., 40., 132., 46., 11., 6., 0., 0., 4., 107., 96.,
          7., 4., 3., 9., 45., 20., 38., 1., 42., 13., 2., 3., 59., 31.,
          1., 4., 0., 0., 3., 11., 21., 132., 68., 72., 0., 0., 0., 0.,
          1., 28., 132., 30., 0., 0., 0., 0., 4., 7., 45., 1., 0., 0.,
          0., 0., 38., 24., 3. ]
      - [ 5., 3., 1., 0., 1., 16., 57., 27., 2., 1., 2., 3., 5., 67.,
          106., 37., 18., 7., 3., 5., 29., 18., 66., 121., 5., 2., 0.,
          50., 96., 13., 8., 10., 12., 4., 16., 26., 0., 0., 19., 92.,
          27., 16., 52., 116., 6., 19., 39., 30., 121., 34., 15., 14.,
          51., 61., 23., 47., 3., 0., 0., 8., 121., 121., 6., 5., 3., 4.,
          44., 108., 3., 0., 1., 8., 85., 14., 27., 111., 3., 0., 0., 4.,
          121., 62., 26., 35., 27., 25., 7., 34., 13., 6., 12., 99.,
          121., 76., 5., 6., 0., 0., 8., 49., 4., 0., 0., 0., 23., 23.,
          2., 9., 3., 0., 0., 0., 44., 94., 86., 43., 3., 0., 0., 0., 1.,
          5., 36., 103., 23., 0., 0., 0. ]
      - [ 107., 56., 7., 12., 28., 30., 7., 19., 129., 107., 14., 0., 0.,
          0., 0., 5., 40., 35., 4., 0., 0., 0., 0., 3., 15., 1., 0., 0.,
          0., 0., 2., 8., 9., 85., 39., 52., 42., 1., 0., 0., 33., 139.,
          112., 0., 0., 0., 0., 1., 130., 139., 27., 0., 0., 0., 0., 3.,
          38., 19., 4., 1., 0., 0., 0., 1., 0., 4., 5., 13., 26., 4., 1.,
          0., 139., 54., 14., 0., 0., 0., 1., 19., 139., 87., 26., 6.,
          0., 0., 0., 30., 34., 53., 59., 24., 0., 0., 0., 1., 1., 1.,
          1., 2., 11., 6., 9., 3., 79., 25., 2., 0., 0., 1., 14., 17.,
          84., 121., 116., 5., 1., 1., 1., 4., 12., 110., 114., 12., 0.,
          0., 0., 0. ]
      - [ 9., 47., 13., 0., 0., 0., 0., 1., 144., 33., 2., 0., 0., 0.,
          2., 23., 90., 2., 0., 0., 0., 6., 47., 37., 47., 0., 0., 0.,
          0., 4., 74., 104., 41., 53., 5., 0., 0., 4., 10., 7., 144.,
          18., 0., 0., 0., 0., 0., 33., 144., 5., 0., 0., 0., 0., 0.,
          15., 144., 0., 0., 0., 0., 0., 1., 49., 34., 15., 17., 9., 3.,
          10., 17., 10., 144., 44., 3., 0., 0., 0., 0., 10., 144., 14.,
          0., 0., 0., 0., 0., 9., 144., 0., 0., 0., 0., 0., 0., 40., 40.,
          9., 15., 14., 29., 1., 0., 6., 144., 14., 3., 0., 0., 0., 0.,
          40., 144., 5., 0., 0., 0., 0., 0., 15., 144., 0., 0., 0., 0.,
          0., 0., 31. ]
      - [ 1., 1., 0., 1., 1., 1., 2., 3., 4., 2., 0., 0., 1., 1., 12.,
          17., 3., 0., 0., 0., 1., 4., 40., 50., 6., 0., 0., 0., 0., 0.,
          32., 132., 13., 2., 2., 1., 1., 0., 0., 16., 89., 3., 0., 0.,
          0., 3., 80., 132., 29., 1., 0., 0., 0., 74., 132., 128., 79.,
          15., 1., 6., 4., 12., 29., 132., 26., 1., 0., 0., 0., 0., 57.,
          89., 132., 30., 0., 0., 0., 2., 51., 132., 85., 24., 0., 0.,
          10., 107., 47., 28., 16., 32., 8., 9., 33., 80., 10., 3., 1.,
          0., 0., 0., 1., 8., 115., 132., 44., 9., 0., 0., 1., 13., 77.,
          75., 39., 58., 1., 0., 4., 14., 0., 9., 3., 16., 1., 1., 35.,
          95., 0., 0. ]
      - [ 3., 13., 21., 34., 21., 6., 116., 73., 33., 77., 23., 8., 2.,
          12., 116., 85., 6., 5., 1., 5., 42., 107., 76., 16., 1., 1.,
          44., 38., 37., 63., 76., 6., 13., 18., 22., 77., 116., 60.,
          24., 15., 116., 116., 33., 19., 13., 14., 13., 52., 48., 17.,
          55., 46., 10., 70., 12., 2., 0., 0., 61., 53., 7., 54., 101.,
          4., 3., 1., 16., 48., 79., 102., 28., 14., 64., 16., 59., 28.,
          7., 23., 47., 67., 10., 7., 111., 74., 0., 0., 49., 29., 0.,
          0., 51., 41., 0., 0., 59., 36., 10., 6., 23., 38., 4., 2., 25.,
          17., 0., 1., 27., 22., 1., 1., 70., 36., 0., 0., 43., 39., 0.,
          0., 53., 30., 0., 0., 45., 44., 0., 0., 32., 19. ]
      - [ 3., 14., 30., 9., 2., 0., 0., 0., 22., 11., 29., 17., 2., 1.,
          2., 20., 58., 5., 4., 1., 1., 1., 2., 46., 5., 2., 6., 11.,
          19., 2., 1., 6., 18., 117., 86., 1., 0., 0., 0., 1., 115., 49.,
          9., 2., 1., 1., 8., 95., 25., 1., 0., 26., 21., 7., 27., 91.,
          1., 0., 9., 78., 27., 2., 1., 2., 47., 45., 10., 0., 0., 0.,
          79., 107., 129., 32., 1., 2., 1., 2., 50., 129., 27., 6., 2.,
          51., 46., 42., 63., 22., 0., 0., 7., 56., 25., 44., 98., 0.,
          1., 0., 0., 0., 0., 0., 129., 129., 7., 0., 0., 0., 0., 5.,
          129., 129., 1., 0., 0., 0., 2., 49., 129., 12., 0., 0., 0., 0.,
          0., 32., 129., 1. ]
      - [ 4., 1., 21., 24., 3., 2., 72., 118., 1., 2., 52., 44., 39.,
          83., 80., 14., 0., 1., 5., 5., 22., 91., 25., 2., 0., 0., 0.,
          5., 7., 24., 4., 0., 1., 1., 88., 118., 8., 0., 8., 18., 11.,
          25., 118., 69., 5., 3., 1., 6., 81., 54., 50., 7., 10., 52.,
          24., 18., 8., 3., 3., 18., 63., 91., 13., 6., 24., 6., 91.,
          118., 0., 0., 0., 12., 105., 14., 47., 14., 0., 0., 16., 101.,
          99., 33., 27., 30., 26., 25., 36., 73., 7., 10., 26., 104.,
          60., 16., 1., 1., 40., 2., 9., 10., 0., 0., 15., 113., 112.,
          5., 4., 4., 2., 3., 41., 118., 41., 8., 26., 40., 65., 36.,
          16., 28., 2., 2., 3., 25., 66., 24., 0., 0. ]
      - [ 22., 0., 0., 10., 65., 2., 0., 17., 57., 0., 0., 0., 3., 30.,
          45., 113., 1., 0., 0., 0., 38., 93., 30., 12., 0., 0., 0., 1.,
          24., 14., 0., 0., 78., 1., 0., 4., 64., 4., 1., 17., 145., 14.,
          2., 2., 25., 50., 21., 114., 18., 3., 2., 6., 145., 145., 14.,
          18., 0., 0., 1., 4., 61., 16., 1., 0., 80., 9., 1., 8., 38.,
          1., 0., 5., 145., 110., 17., 17., 19., 5., 1., 9., 19., 26.,
          18., 58., 145., 47., 1., 2., 0., 1., 5., 10., 81., 20., 1., 1.,
          52., 9., 3., 7., 12., 1., 0., 5., 145., 20., 2., 2., 2., 3.,
          2., 32., 21., 4., 2., 6., 88., 101., 6., 13., 0., 0., 0., 0.,
          65., 73., 4., 1. ]
      - [ 0., 0., 0., 32., 64., 1., 0., 0., 115., 12., 1., 20., 21., 0.,
          0., 3., 143., 48., 2., 12., 57., 6., 1., 2., 7., 6., 1., 16.,
          143., 18., 1., 1., 1., 0., 0., 6., 101., 23., 4., 1., 116., 8.,
          1., 4., 18., 12., 13., 19., 143., 33., 1., 4., 44., 13., 1.,
          5., 11., 3., 1., 5., 143., 81., 1., 1., 0., 1., 1., 7., 61.,
          15., 6., 1., 48., 10., 6., 2., 7., 8., 30., 22., 143., 27., 1.,
          0., 14., 14., 4., 12., 33., 3., 0., 0., 143., 130., 3., 2., 0.,
          1., 3., 12., 58., 0., 0., 0., 17., 33., 18., 5., 8., 0., 0.,
          1., 143., 88., 2., 0., 4., 1., 0., 1., 46., 17., 0., 1., 105.,
          64., 0., 1. ]
      - [ 0., 8., 136., 66., 2., 0., 0., 0., 2., 24., 84., 98., 31., 0.,
          0., 0., 1., 4., 5., 47., 137., 0., 0., 0., 27., 1., 0., 9.,
          72., 1., 2., 6., 6., 15., 74., 137., 22., 0., 0., 0., 125.,
          77., 61., 54., 20., 0., 0., 1., 21., 10., 4., 49., 137., 0.,
          0., 0., 43., 2., 0., 10., 67., 1., 0., 2., 30., 13., 13., 89.,
          71., 2., 1., 0., 137., 18., 2., 18., 34., 0., 0., 11., 25., 2.,
          0., 41., 137., 0., 0., 2., 42., 1., 0., 10., 46., 0., 0., 10.,
          36., 8., 3., 39., 76., 4., 1., 0., 137., 18., 1., 8., 39., 0.,
          0., 3., 16., 1., 0., 26., 137., 1., 0., 1., 36., 0., 0., 2.,
          26., 1., 0., 19. ]
      - [ 87., 2., 3., 1., 0., 0., 0., 110., 45., 17., 33., 1., 0., 0.,
          0., 40., 2., 13., 17., 5., 2., 0., 0., 1., 0., 1., 0., 5., 8.,
          1., 0., 0., 67., 3., 13., 54., 16., 0., 0., 73., 19., 57.,
          139., 136., 17., 0., 0., 2., 100., 139., 89., 7., 1., 0., 0.,
          1., 11., 8., 1., 5., 9., 0., 0., 0., 16., 0., 0., 139., 80.,
          0., 0., 26., 77., 15., 22., 139., 56., 2., 14., 30., 139., 39.,
          10., 5., 1., 0., 3., 29., 34., 3., 1., 6., 3., 0., 0., 7., 10.,
          0., 0., 139., 80., 0., 0., 31., 70., 0., 0., 28., 33., 10.,
          23., 79., 139., 0., 0., 1., 5., 2., 3., 52., 26., 0., 0., 1.,
          1., 0., 0., 29. ]
      - [ 0., 71., 98., 0., 0., 0., 0., 0., 0., 41., 61., 1., 0., 0., 0.,
          0., 8., 11., 14., 5., 3., 0., 0., 4., 41., 0., 0., 0., 0., 0.,
          0., 28., 1., 130., 146., 0., 0., 0., 0., 0., 16., 146., 146.,
          0., 0., 0., 0., 0., 122., 146., 54., 1., 0., 0., 0., 7., 83.,
          3., 0., 0., 0., 0., 0., 41., 4., 12., 10., 0., 0., 0., 1., 9.,
          114., 51., 27., 0., 0., 0., 0., 25., 146., 43., 4., 0., 0., 0.,
          0., 37., 124., 1., 0., 0., 0., 0., 0., 37., 0., 0., 0., 0., 0.,
          4., 46., 9., 105., 0., 0., 0., 0., 1., 20., 56., 146., 0., 0.,
          0., 0., 0., 0., 58., 94., 0., 0., 0., 0., 0., 0., 34. ]
      - [ 0., 0., 0., 0., 0., 0., 106., 66., 3., 0., 0., 0., 0., 0., 99.,
          70., 3., 0., 0., 0., 0., 0., 80., 77., 3., 0., 0., 0., 0., 0.,
          54., 41., 9., 36., 6., 0., 0., 0., 138., 26., 66., 15., 1., 1.,
          1., 2., 148., 109., 10., 1., 6., 12., 7., 27., 148., 54., 1.,
          5., 11., 2., 0., 11., 148., 17., 35., 83., 8., 0., 0., 0., 0.,
          1., 148., 59., 2., 9., 12., 1., 6., 21., 46., 7., 29., 91.,
          70., 8., 22., 9., 3., 42., 78., 14., 2., 2., 23., 2., 63., 21.,
          0., 0., 0., 0., 0., 4., 148., 10., 0., 5., 22., 0., 0., 15.,
          35., 2., 4., 39., 130., 0., 0., 1., 18., 15., 12., 8., 7., 0.,
          0., 1. ]
      - [ 23., 36., 39., 3., 3., 4., 2., 5., 19., 93., 84., 1., 0., 0.,
          0., 0., 45., 79., 10., 4., 81., 14., 0., 0., 1., 1., 0., 2.,
          146., 108., 4., 0., 0., 2., 7., 2., 31., 60., 7., 2., 44., 78.,
          12., 2., 16., 12., 4., 4., 146., 77., 0., 1., 48., 14., 1., 9.,
          8., 1., 0., 1., 146., 113., 5., 1., 0., 0., 0., 1., 47., 59.,
          14., 0., 42., 6., 1., 5., 18., 41., 43., 20., 146., 14., 0.,
          1., 34., 8., 4., 32., 16., 1., 0., 2., 146., 48., 0., 2., 0.,
          1., 4., 3., 11., 69., 27., 0., 22., 3., 1., 9., 21., 60., 22.,
          11., 146., 11., 0., 1., 18., 4., 6., 28., 14., 2., 0., 1.,
          146., 54., 0., 1. ]
      - [ 24., 1., 0., 0., 113., 10., 0., 2., 146., 12., 0., 2., 37.,
          10., 0., 21., 25., 3., 0., 7., 146., 32., 0., 6., 32., 1., 0.,
          0., 18., 3., 0., 2., 26., 1., 0., 0., 141., 8., 0., 2., 146.,
          17., 0., 3., 47., 10., 0., 31., 34., 4., 0., 12., 146., 36.,
          0., 9., 33., 6., 0., 2., 29., 3., 0., 1., 23., 2., 1., 2.,
          132., 6., 0., 1., 146., 26., 2., 4., 49., 6., 2., 19., 39., 7.,
          2., 23., 146., 23., 3., 5., 32., 13., 1., 4., 36., 1., 0., 0.,
          16., 3., 1., 7., 98., 0., 0., 0., 146., 24., 0., 4., 42., 4.,
          1., 13., 38., 6., 1., 14., 146., 21., 2., 4., 24., 14., 0., 2.,
          37., 1., 0., 0. ]
      - [ 0., 0., 0., 7., 24., 40., 3., 0., 0., 16., 14., 16., 77., 53.,
          1., 0., 1., 124., 90., 8., 23., 6., 18., 9., 0., 124., 124.,
          0., 0., 7., 10., 1., 0., 3., 22., 52., 27., 0., 0., 0., 15.,
          2., 2., 100., 100., 1., 0., 2., 100., 5., 2., 13., 16., 16.,
          51., 61., 7., 37., 20., 0., 0., 101., 85., 11., 0., 4., 111.,
          89., 13., 0., 0., 0., 37., 26., 68., 116., 23., 0., 0., 0.,
          124., 52., 4., 6., 2., 2., 4., 13., 32., 11., 2., 0., 0., 47.,
          32., 7., 0., 0., 31., 116., 38., 0., 0., 0., 10., 71., 75.,
          30., 1., 0., 0., 0., 60., 124., 47., 0., 0., 0., 0., 0., 8.,
          119., 85., 0., 0., 1., 1., 0. ]
      - [ 125., 53., 125., 125., 1., 0., 0., 11., 32., 24., 123., 125.,
          8., 0., 0., 4., 43., 10., 9., 22., 6., 2., 11., 22., 2., 3.,
          6., 9., 11., 7., 5., 4., 40., 39., 125., 125., 7., 0., 0., 3.,
          125., 71., 44., 18., 0., 0., 0., 27., 61., 17., 31., 37., 1.,
          0., 0., 17., 2., 15., 20., 20., 3., 0., 0., 1., 56., 26., 8.,
          32., 24., 17., 11., 8., 91., 125., 49., 3., 0., 0., 0., 3.,
          11., 125., 94., 11., 0., 0., 0., 0., 3., 39., 63., 3., 0., 0.,
          0., 0., 4., 2., 2., 10., 45., 55., 28., 6., 4., 65., 42., 45.,
          13., 2., 0., 1., 5., 125., 81., 3., 0., 0., 0., 0., 1., 59.,
          98., 1., 0., 0., 0., 0. ]
      - [ 93., 35., 0., 0., 0., 0., 0., 2., 138., 138., 38., 0., 0., 0.,
          0., 5., 70., 90., 39., 3., 3., 1., 1., 12., 19., 19., 10., 21.,
          48., 2., 1., 2., 101., 29., 1., 0., 1., 1., 0., 10., 138., 67.,
          13., 0., 1., 1., 1., 138., 99., 22., 8., 5., 9., 3., 7., 138.,
          25., 5., 4., 25., 39., 13., 13., 18., 109., 48., 0., 0., 0.,
          0., 0., 1., 138., 61., 0., 0., 0., 0., 0., 36., 99., 33., 9.,
          10., 11., 2., 2., 21., 37., 25., 18., 45., 51., 5., 4., 6.,
          88., 26., 0., 0., 0., 0., 0., 0., 138., 56., 0., 0., 0., 0.,
          0., 0., 92., 31., 12., 13., 14., 0., 0., 0., 33., 16., 6., 49.,
          76., 0., 0., 0. ]
      - [ 66., 2., 0., 0., 0., 0., 0., 3., 183., 1., 0., 0., 0., 0., 0.,
          15., 147., 7., 0., 0., 0., 0., 0., 5., 2., 3., 2., 1., 0., 0.,
          0., 1., 89., 1., 0., 0., 0., 0., 0., 9., 183., 2., 0., 0., 0.,
          0., 0., 24., 160., 17., 5., 0., 0., 0., 0., 3., 1., 6., 18.,
          2., 0., 0., 0., 0., 100., 2., 0., 0., 0., 0., 0., 11., 183.,
          7., 0., 0., 0., 0., 2., 59., 100., 23., 19., 0., 0., 1., 15.,
          25., 0., 2., 28., 1., 0., 1., 31., 18., 101., 2., 0., 0., 0.,
          0., 0., 11., 183., 1., 0., 0., 0., 1., 7., 102., 45., 4., 3.,
          0., 0., 6., 64., 67., 6., 2., 0., 0., 0., 5., 59., 69. ]
      - [ 10., 0., 0., 120., 120., 0., 0., 8., 17., 0., 2., 120., 120.,
          5., 5., 16., 7., 0., 0., 3., 92., 41., 10., 13., 0., 0., 1.,
          2., 27., 8., 15., 7., 2., 0., 1., 120., 120., 0., 0., 1., 112.,
          7., 6., 85., 89., 3., 1., 18., 29., 2., 0., 21., 120., 19., 2.,
          11., 26., 1., 0., 2., 27., 4., 12., 27., 3., 1., 0., 120.,
          120., 37., 35., 2., 93., 19., 4., 47., 47., 24., 51., 19., 18.,
          9., 4., 94., 84., 9., 2., 4., 52., 5., 1., 8., 9., 2., 8., 33.,
          0., 10., 45., 9., 33., 57., 71., 0., 2., 1., 11., 21., 99.,
          73., 70., 6., 7., 0., 0., 10., 44., 41., 28., 14., 63., 2., 0.,
          0., 1., 8., 23., 79. ]
      - [ 0., 0., 0., 0., 1., 17., 78., 7., 1., 0., 0., 0., 0., 14.,
          124., 23., 0., 0., 0., 0., 6., 70., 103., 4., 0., 0., 1., 4.,
          15., 22., 17., 1., 25., 1., 0., 2., 15., 21., 14., 13., 124.,
          26., 6., 7., 7., 26., 124., 124., 14., 8., 7., 38., 124., 124.,
          124., 35., 0., 0., 0., 4., 72., 84., 17., 0., 23., 9., 2., 4.,
          28., 34., 17., 6., 124., 124., 79., 31., 7., 10., 6., 22., 13.,
          34., 86., 124., 124., 23., 12., 16., 1., 0., 0., 6., 29., 46.,
          100., 32., 35., 8., 2., 8., 21., 34., 20., 13., 4., 14., 13.,
          9., 15., 19., 6., 7., 23., 12., 14., 16., 3., 2., 4., 17., 49.,
          42., 20., 0., 0., 1., 55., 63. ]
      - [ 21., 0., 0., 1., 17., 54., 24., 28., 11., 0., 0., 2., 26., 37.,
          56., 33., 16., 0., 0., 1., 9., 20., 120., 70., 40., 0., 0., 0.,
          0., 0., 48., 120., 6., 6., 4., 12., 64., 44., 19., 9., 69., 8.,
          2., 2., 3., 3., 39., 99., 13., 13., 26., 36., 21., 4., 119.,
          67., 24., 78., 74., 12., 1., 0., 48., 97., 21., 14., 4., 12.,
          120., 21., 0., 0., 120., 29., 2., 4., 19., 3., 1., 11., 34.,
          7., 23., 48., 120., 33., 2., 5., 31., 93., 82., 13., 22., 13.,
          4., 6., 11., 2., 0., 0., 61., 120., 108., 6., 120., 5., 0., 0.,
          16., 34., 89., 58., 22., 0., 0., 18., 120., 30., 7., 9., 24.,
          19., 7., 13., 29., 8., 3., 6. ]
      - [ 0., 0., 25., 119., 133., 7., 0., 0., 22., 6., 15., 105., 95.,
          6., 1., 10., 95., 9., 2., 7., 1., 0., 2., 68., 59., 0., 0., 0.,
          0., 0., 4., 112., 0., 2., 81., 126., 48., 3., 0., 0., 30., 14.,
          13., 44., 106., 13., 1., 3., 133., 25., 6., 4., 3., 0., 0.,
          63., 100., 15., 0., 0., 0., 0., 0., 60., 1., 4., 15., 38., 36.,
          5., 8., 1., 66., 8., 5., 84., 72., 0., 0., 3., 133., 32., 1.,
          5., 3., 0., 0., 15., 96., 46., 2., 6., 0., 0., 0., 11., 0., 0.,
          0., 40., 81., 20., 18., 1., 57., 1., 0., 44., 44., 0., 0., 49.,
          133., 3., 0., 1., 0., 0., 0., 109., 48., 2., 0., 30., 6., 0.,
          0., 39. ]
      - [ 18., 27., 126., 3., 1., 0., 0., 10., 21., 67., 100., 3., 0.,
          1., 1., 3., 8., 33., 97., 22., 14., 9., 2., 3., 0., 1., 61.,
          105., 27., 1., 0., 0., 25., 60., 137., 2., 0., 0., 1., 10.,
          137., 135., 101., 3., 1., 1., 1., 28., 74., 13., 10., 63., 72.,
          25., 4., 13., 0., 0., 8., 84., 67., 3., 0., 0., 43., 10., 14.,
          0., 0., 0., 62., 95., 137., 81., 48., 9., 0., 0., 3., 66., 30.,
          31., 126., 137., 11., 0., 0., 2., 0., 0., 42., 103., 6., 0.,
          0., 0., 5., 0., 0., 0., 0., 0., 43., 37., 20., 25., 26., 2.,
          0., 0., 2., 17., 0., 7., 56., 21., 0., 0., 0., 0., 0., 2., 16.,
          9., 0., 0., 0., 0. ]
      - [ 42., 44., 0., 0., 0., 0., 0., 0., 55., 16., 0., 0., 0., 0., 0.,
          23., 113., 6., 1., 4., 3., 2., 39., 130., 7., 2., 1., 37., 81.,
          59., 80., 57., 64., 50., 0., 0., 4., 5., 0., 2., 130., 29., 0.,
          0., 0., 0., 0., 22., 130., 66., 12., 35., 11., 0., 1., 44.,
          13., 13., 10., 130., 122., 7., 6., 6., 35., 7., 0., 0., 4.,
          16., 37., 80., 82., 6., 4., 0., 0., 0., 6., 130., 130., 20.,
          44., 34., 21., 1., 0., 77., 7., 17., 21., 49., 68., 22., 42.,
          11., 29., 2., 0., 0., 0., 2., 24., 80., 15., 5., 21., 25., 25.,
          7., 9., 73., 11., 16., 130., 58., 10., 5., 1., 8., 13., 95.,
          66., 13., 1., 1., 4., 4. ]
      - [ 11., 47., 81., 19., 1., 0., 0., 2., 35., 23., 17., 17., 13.,
          8., 17., 69., 67., 0., 0., 0., 1., 2., 9., 133., 83., 50., 0.,
          0., 0., 0., 0., 30., 29., 30., 55., 79., 0., 0., 0., 11., 133.,
          69., 20., 5., 0., 0., 1., 56., 112., 10., 0., 0., 0., 0., 0.,
          84., 60., 4., 0., 1., 0., 0., 0., 36., 23., 3., 10., 55., 0.,
          0., 34., 133., 133., 60., 2., 1., 0., 1., 21., 123., 87., 133.,
          2., 0., 0., 0., 0., 4., 79., 28., 4., 10., 3., 0., 0., 9., 0.,
          0., 0., 7., 6., 3., 62., 133., 7., 18., 1., 12., 20., 7., 26.,
          34., 24., 133., 4., 2., 2., 0., 0., 0., 22., 127., 11., 7., 6.,
          0., 0., 0. ]
      - [ 14., 8., 0., 0., 0., 0., 0., 2., 3., 2., 1., 1., 2., 5., 22.,
          14., 1., 1., 3., 2., 2., 14., 31., 4., 0., 0., 0., 0., 1., 4.,
          27., 29., 30., 3., 0., 0., 0., 1., 16., 32., 107., 2., 0., 0.,
          0., 28., 102., 124., 8., 0., 0., 1., 8., 124., 124., 39., 2.,
          2., 17., 10., 1., 10., 99., 116., 15., 0., 0., 0., 4., 22.,
          124., 77., 124., 46., 0., 0., 8., 34., 47., 62., 62., 22., 1.,
          5., 100., 124., 27., 13., 1., 2., 40., 58., 59., 63., 11., 12.,
          0., 0., 0., 0., 36., 44., 54., 18., 91., 66., 0., 0., 54., 46.,
          6., 1., 108., 76., 0., 0., 63., 84., 1., 0., 1., 0., 0., 2.,
          60., 124., 13., 1. ]
      - [ 0., 0., 0., 0., 34., 71., 4., 0., 35., 17., 2., 8., 99., 46.,
          0., 0., 146., 53., 2., 3., 6., 3., 2., 6., 17., 1., 0., 0., 6.,
          32., 5., 5., 0., 0., 0., 1., 66., 76., 6., 1., 30., 20., 5.,
          51., 146., 52., 3., 4., 146., 71., 5., 15., 17., 6., 6., 27.,
          56., 3., 0., 1., 23., 48., 14., 17., 1., 0., 0., 0., 47., 72.,
          12., 7., 15., 1., 0., 5., 146., 146., 28., 16., 146., 17., 0.,
